{
  "biases": [
    -0.001236422,
    -0.05009812,
    0.036354035,
    -0.012495521,
    -0.030386725,
    0.018722514,
    -0.0057961354,
    -0.0077575413,
    -0.005164652,
    0.023436027,
    0.0037669947,
    0.023927206,
    -0.016555233,
    -0.019358288,
    -0.006489721,
    -0.0059409263,
    -0.009019472,
    0.008744592,
    0.025470676,
    0.004568386,
    0.0038345782,
    0.0010067178,
    -0.0038034548,
    0.01496637,
    -0.009787035,
    0.016685942,
    0.00079883315,
    0.01460813,
    0.011595203,
    -0.006914153,
    -0.0070728958,
    0.021764563,
    -0.016981341,
    -0.015393118
  ],
  "weights": [
    [
      0.0283368,
      -0.07857311,
      -0.049824145,
      0.07136551,
      -0.032526433,
      -0.020892352,
      -0.029032342,
      -0.016531676,
      0.07896467,
      0.00441429,
      -0.05815164,
      -0.03025315,
      0.072446786,
      -0.049723964,
      0.040609688,
      0.026477396,
      0.016501226,
      -0.061972585,
      3.72082e-05,
      -0.05331163,
      -0.0035651624,
      0.0610869,
      -0.053172067,
      0.0510123,
      -0.06898011,
      0.0502783,
      0.04777447,
      0.042851366,
      -0.05828425,
      0.014114335,
      -0.011746913,
      -0.008523151,
      0.0016288757,
      0.046499617
    ],
    [
      0.03911654,
      -0.06779019,
      -0.06359354,
      0.053058617,
      -0.067982085,
      -0.07589634,
      0.0025024116,
      -0.012366779,
      -0.077491745,
      0.03659346,
      0.026803419,
      0.06918044,
      -0.06974799,
      -0.043778032,
      -0.065677054,
      0.0032761768,
      0.010371283,
      -0.041226458,
      -0.013004929,
      0.023119636,
      -0.056110468,
      0.06439748,
      -0.04724942,
      0.058066882,
      -0.014687404,
      -0.07990686,
      -0.0063921213,
      0.026927486,
      0.04749816,
      0.047504462,
      -0.07107529,
      0.051737837,
      0.06850185,
      -0.023381848
    ],
    [
      0.053933166,
      0.04093893,
      -0.046412185,
      0.06485868,
      -0.047272068,
      0.053454928,
      -0.024570461,
      -0.005120665,
      -0.06440537,
      0.017740898,
      0.00961788,
      0.0066469386,
      0.074984945,
      -0.04419701,
      -0.07688751,
      0.013150208,
      0.019456618,
      -0.058753666,
      -0.008732565,
      0.049554802,
      -0.079530284,
      0.019946665,
      0.0064743683,
      -0.04689948,
      -0.043537512,
      0.046456598,
      -0.07717553,
      0.071206085,
      0.06930169,
      0.033237807,
      0.08061219,
      -0.006191291,
      0.07089902,
      0.009170152
    ],
    [
      -0.027541034,
      -0.04203148,
      0.08030208,
      0.020313472,
      -0.027924214,
      0.019044824,
      -0.0057456195,
      0.007559739,
      0.05007612,
      0.048527308,
      -0.07274614,
      -0.019320328,
      -0.07194428,
      0.07364301,
      0.017075203,
      0.052052923,
      -0.06318434,
      -0.053147778,
      0.05239903,
      0.06999,
      -0.023021601,
      -0.012373477,
      0.04685729,
      -0.02553748,
      0.056719758,
      0.07796083,
      0.06004428,
      0.06613486,
      0.029894687,
      -0.049096543,
      -0.022352554,
      0.006522365,
      -0.041363675,
      0.019394323
    ],
    [
      -0.011122882,
      0.081051715,
      -0.053970918,
      0.02951447,
      0.03293509,
      -0.005507618,
      0.024277605,
      -0.00071555376,
      -0.022746623,
      -0.038814984,
      -0.013480857,
      -0.04456454,
      -0.042344835,
      0.05024273,
      0.028944537,
      0.066199444,
      0.06042952,
      -0.004365653,
      0.023928009,
      -0.06625349,
      0.07349556,
      0.044162415,
      -0.036708128,
      -0.07889291,
      -0.042334605,
      -0.021806605,
      -0.0102841705,
      -0.03768927,
      0.02154699,
      0.020419449,
      -0.07491342,
      -0.065437056,
      -0.04060756,
      -0.050098076
    ],
    [
      0.02138184,
      0.018878862,
      0.05907201,
      0.048572637,
      0.031194486,
      -0.05307878,
      -0.06696093,
      -0.017224103,
      0.044152595,
      -0.058197103,
      0.005441375,
      -0.018927094,
      -0.014670588,
      0.030182488,
      -0.00092436373,
      0.050446562,
      0.030117445,
      0.01919233,
      0.048262097,
      -0.07648883,
      -0.06816159,
      -0.049777504,
      -0.05354692,
      -0.029380504,
      -0.06933746,
      0.036325216,
      0.028752133,
      0.0072940364,
      0.048182003,
      -0.07590343,
      -0.07686096,
      -0.0057997406,
      0.04289975,
      0.03553342
    ],
    [
      0.08032472,
      -0.0499609,
      -0.03363964,
      -0.0018745139,
      0.015377797,
      -0.06795362,
      -0.036971446,
      -0.017041422,
      0.0028964058,
      0.00041107088,
      0.031201944,
      0.056497715,
      -0.037887443,
      -0.06490794,
      0.01751402,
      -0.05981105,
      0.046235986,
      0.013398588,
      0.045194425,
      0.04245811,
      -0.071952745,
      0.013065539,
      -0.056650706,
      -0.029917657,
      0.07781624,
      -0.018812265,
      0.03849925,
      -0.012469828,
      0.063071884,
      0.066549174,
      -0.06146173,
      0.035213932,
      -0.06133581,
      -0.048101574
    ],
    [
      0.031163067,
      0.034141675,
      -0.049514648,
      -0.023121938,
      0.043152995,
      0.022095166,
      0.07100809,
      -0.0108510405,
      0.023400135,
      0.04703697,
      -0.06852265,
      0.008480303,
      0.044474132,
      -0.052697986,
      0.07648534,
      0.06790117,
      0.039533444,
      0.056168593,
      0.04843808,
      0.07772625,
      0.045752592,
      -0.018159702,
      -0.05952731,
      0.061060272,
      0.08012483,
      -0.019916967,
      -0.07196717,
      0.026998453,
      -0.08020841,
      0.069796555,
      0.020626925,
      -0.061771505,
      -0.013516746,
      0.07049567
    ],
    [
      -0.026862688,
      0.014411785,
      0.008430056,
      0.06429944,
      -0.0073421746,
      -0.011442259,
      0.021220505,
      -0.060410865,
      0.039321885,
      0.03262671,
      0.08055494,
      -0.075432345,
      0.0120497495,
      -0.028723892,
      0.076902576,
      -0.021755897,
      -0.031513453,
      0.06618292,
      -0.07443472,
      0.0052201897,
      -0.030998882,
      -0.014466949,
      0.014484525,
      0.073843695,
      0.05476933,
      -0.077036195,
      -0.069430456,
      -0.04737587,
      0.0076635033,
      -0.07448137,
      -0.0123132765,
      -0.03248905,
      -0.017910406,
      0.052017726
    ],
    [
      0.026688516,
      0.049757488,
      0.042831525,
      -0.06865435,
      0.03900516,
      0.054635562,
      0.025644153,
      -0.026534095,
      -0.02646415,
      -0.0020234063,
      0.022536784,
      -0.060090967,
      0.07098084,
      -0.045035895,
      0.06284178,
      0.05530972,
      0.053782173,
      0.06449919,
      0.009546265,
      0.046836115,
      -0.04479299,
      0.020913877,
      0.012377545,
      0.05921962,
      0.00824488,
      0.03225734,
      0.006969355,
      -0.022830803,
      -0.077142306,
      -0.04803721,
      -0.012899436,
      0.06781828,
      -0.078189634,
      0.0037163273
    ],
    [
      0.06635695,
      -0.07743888,
      -0.042208333,
      0.051133655,
      0.005631648,
      0.074226566,
      -0.03740007,
      0.031974755,
      -0.03584331,
      -0.060985036,
      0.050916143,
      -0.07526871,
      -0.02591762,
      0.051722266,
      0.049605884,
      0.006502919,
      0.036149435,
      -0.07698502,
      0.046247832,
      -0.045772873,
      -0.026757702,
      0.07874236,
      -0.077033736,
      -0.021276794,
      -0.06625107,
      -0.023485709,
      -0.07008363,
      -0.047020487,
      -0.016855724,
      0.059380956,
      0.0017665029,
      -0.0015124232,
      0.04442721,
      0.018595666
    ],
    [
      -0.06747912,
      0.0020706952,
      -0.060772832,
      -0.054763485,
      0.052709706,
      -0.021156076,
      0.051483043,
      -0.060787305,
      -0.038496424,
      0.030967966,
      -0.049081337,
      -0.06984321,
      -0.03689728,
      -0.05174551,
      -0.079293735,
      0.03157708,
      0.0028222576,
      -0.078438155,
      0.05944658,
      0.0152661055,
      0.05137392,
      0.018509276,
      0.065979905,
      -0.028092872,
      -0.07709444,
      -0.07782102,
      0.011695676,
      0.03335513,
      0.014912486,
      -0.04951157,
      -0.07633811,
      0.039692864,
      0.041808493,
      0.021494746
    ],
    [
      -0.05687218,
      -0.0024514124,
      0.057984017,
      0.05655604,
      -0.052671466,
      0.009529799,
      -0.06110046,
      -0.07878108,
      0.03805428,
      -0.05542852,
      -0.016912669,
      -0.023501303,
      0.04794126,
      -0.053890973,
      -0.004830539,
      -0.019546784,
      -0.016632266,
      0.03765113,
      0.043941714,
      -0.019785423,
      0.024362653,
      -0.00467401,
      -0.03891916,
      -0.06564556,
      -0.038707074,
      0.01671885,
      0.029708631,
      -0.037001703,
      0.0044608563,
      0.05362191,
      -0.044163752,
      0.01642096,
      0.03404957,
      0.020734333
    ],
    [
      0.037599333,
      -0.035250753,
      -0.012452744,
      0.08122619,
      -0.03943458,
      -0.067950845,
      0.06626115,
      -0.0058676004,
      -0.00978601,
      -0.04515628,
      -0.061867483,
      0.027185492,
      0.0030682161,
      -0.022937361,
      -0.05323287,
      -0.02535538,
      -0.064237595,
      -0.042662427,
      0.058530577,
      -0.040011365,
      -0.0028318465,
      0.06685903,
      -0.029270828,
      -0.051302943,
      -0.053544328,
      0.017272316,
      0.034096368,
      -0.032984577,
      -0.0031611398,
      0.051677175,
      -0.06584023,
      0.060100846,
      0.042825,
      -1.3053417e-05
    ],
    [
      0.017180659,
      0.06201131,
      -0.044623677,
      0.060357966,
      -0.031994957,
      0.034801073,
      -0.007540345,
      0.06470113,
      -0.029711619,
      -0.013143428,
      -0.0029515326,
      0.036313556,
      -0.0046208724,
      -0.005826205,
      0.076721914,
      -0.057082444,
      -0.0055015385,
      0.060705595,
      0.035936907,
      0.034219153,
      0.049213268,
      -0.07113373,
      -0.03351131,
      0.036393456,
      -0.07271351,
      -0.013685904,
      0.002870895,
      -0.066424824,
      -0.067953944,
      -0.00768853,
      -0.0014529377,
      -0.051351875,
      -0.022181708,
      0.02355498
    ],
    [
      0.009144627,
      -0.019368734,
      0.030613184,
      -0.015519299,
      -0.025455676,
      0.0035504028,
      0.079974554,
      -0.07690874,
      -0.008811727,
      0.045889206,
      0.07997563,
      0.023840085,
      0.0634324,
      -0.0049460605,
      -0.024126109,
      -0.068886444,
      0.022566013,
      0.06054697,
      0.004383318,
      -0.016443312,
      0.024121612,
      0.020672582,
      0.009500459,
      0.025927149,
      0.009385258,
      -0.06715911,
      0.006057292,
      -0.033529557,
      0.006966874,
      -0.07555542,
      -0.020946939,
      -0.017321207,
      -0.07508872,
      0.080282666
    ],
    [
      -0.033283442,
      -0.06379836,
      0.038784653,
      0.01897908,
      0.06451265,
      -0.018497981,
      -0.008989647,
      -0.023546979,
      0.031702586,
      -0.055764228,
      0.001974173,
      0.0705485,
      -0.034179952,
      -0.067278154,
      0.079363026,
      -0.022108667,
      -0.0379029,
      -0.06945025,
      0.030863367,
      -0.019153628,
      0.009672828,
      0.028918408,
      -0.0754947,
      -0.02406542,
      -0.03221713,
      -0.020789206,
      0.009809956,
      -0.052587032,
      -0.062286187,
      0.014110021,
      0.08076883,
      -0.06002894,
      0.038765162,
      0.01283031
    ],
    [
      0.070174925,
      0.050020926,
      0.064685695,
      -0.065834746,
      -0.022362083,
      0.018443167,
      0.036600046,
      -0.010170817,
      0.01866337,
      0.008207515,
      0.047374867,
      -0.026477106,
      -0.07188165,
      0.04952956,
      0.06035281,
      -0.02598086,
      0.030153275,
      0.047861718,
      -0.02625272,
      0.056771986,
      0.04678025,
      -0.047947794,
      -0.047688197,
      -0.062837504,
      0.010569364,
      0.005799338,
      7.207692e-05,
      -0.0375413,
      -0.03389393,
      -0.053812835,
      -0.043098565,
      -0.077039376,
      -0.018644653,
      -0.017784543
    ],
    [
      0.06192232,
      -0.006302148,
      0.070107274,
      0.07160226,
      0.011166386,
      0.039039172,
      0.04676891,
      -0.01878383,
      0.03439395,
      0.03080067,
      -0.03565412,
      0.0421374,
      -0.026128907,
      0.07692195,
      0.07485478,
      -0.042717032,
      0.029859275,
      0.05161109,
      0.059897356,
      -0.02124272,
      -0.081153095,
      0.068558596,
      0.005322464,
      -0.05198574,
      -0.06288946,
      -0.030718945,
      -0.029331166,
      -0.019905034,
      -0.052332625,
      -0.023170285,
      -0.019241393,
      0.014883935,
      0.062465645,
      0.022495411
    ],
    [
      -0.005037293,
      -0.052355945,
      0.03470537,
      -0.04166463,
      0.0006211847,
      -0.075557746,
      0.063907795,
      0.0762848,
      -0.07141164,
      0.018271491,
      0.032309875,
      -0.071734734,
      -0.06974636,
      0.022951439,
      0.02677849,
      0.07939083,
      -0.011902474,
      -0.03225169,
      0.0050928444,
      -0.06905543,
      0.026435733,
      0.010403633,
      0.018094175,
      0.06400006,
      -0.06296054,
      0.06596836,
      -0.076472834,
      0.058320902,
      0.005379446,
      -0.017813794,
      -0.05842329,
      -0.009120628,
      0.058242403,
      -0.030595906
    ],
    [
      0.07083545,
      0.06459964,
      0.048155807,
      0.011631779,
      -0.029561635,
      0.07562808,
      -0.04247543,
      -0.0018390268,
      0.045466594,
      0.030160189,
      0.013698928,
      0.068134226,
      0.03284225,
      0.02519697,
      0.07683843,
      0.03392221,
      0.02921065,
      -0.07650032,
      -0.05486516,
      0.06644546,
      -0.026340604,
      0.07994852,
      0.021486051,
      -0.06893692,
      0.063771315,
      0.022186436,
      -0.013108462,
      -0.001012288,
      0.05629065,
      -0.04996578,
      0.070619844,
      -0.019738879,
      0.05444888,
      0.0061978027
    ],
    [
      -0.041670054,
      0.07167851,
      0.044201814,
      -0.01827453,
      0.03316457,
      0.03218343,
      0.04866963,
      -0.054290466,
      -0.019370921,
      -0.0525641,
      0.050931476,
      0.050480448,
      0.028360605,
      0.0465352,
      0.01444307,
      0.04591251,
      0.026262462,
      0.028428033,
      -0.07710475,
      -0.058168843,
      0.043387838,
      -0.030189712,
      -0.06748758,
      0.00024057925,
      0.062474973,
      0.07149453,
      -0.0035059676,
      -0.038265027,
      -0.029766958,
      -0.066612095,
      0.067949526,
      -0.018917039,
      -0.042993616,
      -0.0191231
    ],
    [
      -0.02684547,
      0.05794201,
      0.064552225,
      -0.04614501,
      -0.06776245,
      0.003052391,
      0.057623185,
      0.00466533,
      -0.039114468,
      -0.06839031,
      0.073777534,
      0.06286561,
      -0.029992659,
      0.02376867,
      0.039476052,
      -0.0366893,
      0.08038802,
      0.0040310323,
      -0.06331701,
      -0.080065906,
      -0.07638861,
      0.012362711,
      0.038850643,
      -0.021064728,
      0.041848645,
      -0.023070686,
      0.02628079,
      -0.021173958,
      0.042330787,
      -0.045821838,
      -0.052331675,
      0.049056895,
      0.068631224,
      0.013598144
    ],
    [
      -0.056238294,
      -0.03192158,
      0.038573667,
      -0.053688265,
      0.041909873,
      -0.0404107,
      0.04496368,
      0.02621077,
      -0.06471571,
      0.02428256,
      -0.067176014,
      -0.032539044,
      0.052150957,
      -0.01267343,
      -0.05640261,
      -0.059313174,
      -0.022052027,
      -0.063764215,
      -0.010299958,
      0.035871178,
      -0.058214746,
      0.012933359,
      0.039721914,
      -3.9555132e-05,
      0.0341084,
      0.0153300315,
      0.022622906,
      -0.013323024,
      0.01746685,
      0.06531248,
      -0.052499324,
      0.020190358,
      -0.038330555,
      0.0078000277
    ],
    [
      -0.05464066,
      -0.030936453,
      -0.023762181,
      0.050581194,
      0.011830963,
      0.06769701,
      -0.040201075,
      0.04257133,
      0.007927209,
      -0.02505146,
      0.014311373,
      0.08093714,
      0.014628403,
      -0.05940911,
      0.019172862,
      -0.040425945,
      -0.04270601,
      0.06885294,
      0.054211535,
      -0.027093176,
      -0.044907317,
      -0.05933851,
      0.006231889,
      -0.030024525,
      0.0066551343,
      0.03544595,
      -0.042458903,
      0.010679752,
      0.058712758,
      0.003472358,
      -0.04731749,
      -0.07006082,
      -0.058739893,
      -0.07806737
    ],
    [
      0.06802424,
      0.034713484,
      -0.0023426116,
      -0.044628248,
      0.061377935,
      -0.06728263,
      -0.013465725,
      -0.04354627,
      0.04110787,
      -0.036326747,
      -0.011885002,
      -0.03297509,
      0.054419912,
      -0.031222899,
      -0.03892888,
      0.04920996,
      -0.05654345,
      0.02044198,
      -0.007935405,
      0.041209124,
      0.03850407,
      0.016173795,
      -0.020844664,
      -0.06289493,
      0.048467092,
      0.022345059,
      0.024419434,
      0.059735604,
      0.068758,
      -0.04407926,
      0.024013646,
      0.069992326,
      0.06867582,
      0.0108440295
    ],
    [
      0.06647592,
      -0.055171423,
      -0.04439914,
      0.022053637,
      0.00045487285,
      -0.06478614,
      -0.069266774,
      0.0044954494,
      -0.007296726,
      -0.06848618,
      0.03593433,
      0.06446988,
      0.029718205,
      0.046712555,
      0.05712738,
      -0.0455075,
      -0.027705427,
      -0.07913664,
      -0.059430383,
      -0.015833616,
      0.018008694,
      -0.030060746,
      0.05692754,
      -0.01449196,
      -0.033063725,
      0.03187591,
      -0.012329876,
      0.05985815,
      -0.07281425,
      0.056508563,
      -0.003230989,
      -0.067307174,
      -0.056412876,
      0.01030273
    ],
    [
      -0.0049156,
      -0.033089932,
      0.057836317,
      0.014043445,
      0.050945546,
      0.08202741,
      0.0014218317,
      0.040349253,
      0.028184567,
      0.028058572,
      -0.0055791773,
      0.032698937,
      0.011963977,
      -0.00028672832,
      0.042290173,
      0.070635825,
      -0.06258617,
      -0.0538727,
      0.03374375,
      0.04369746,
      -0.07026316,
      0.076528914,
      -0.04079305,
      0.03759757,
      0.01094041,
      0.06131379,
      0.0041900673,
      -0.014194335,
      -0.07963934,
      0.07064519,
      -0.02813301,
      0.035031367,
      -0.03250369,
      0.049122494
    ],
    [
      -0.029777234,
      0.018145997,
      -0.026740016,
      0.027479598,
      -0.07058425,
      0.010857608,
      0.00036964696,
      0.07862866,
      0.0016646255,
      0.008832598,
      0.048218936,
      -0.027577616,
      -0.07843146,
      -0.01966584,
      0.0409198,
      0.06662023,
      -0.08117046,
      -0.043656643,
      -0.0713067,
      -0.008631998,
      0.03057695,
      0.078996524,
      0.052788187,
      0.06059728,
      -0.046034656,
      0.052012235,
      -0.07435742,
      -0.068895064,
      -0.067840114,
      0.06583265,
      0.05142987,
      -0.06061917,
      0.023472564,
      0.029365404
    ],
    [
      -0.06162941,
      0.06583227,
      -0.03300464,
      -0.032952834,
      -0.06879937,
      -0.01603037,
      0.07630623,
      0.060337562,
      -0.049866896,
      -0.04594814,
      0.07231498,
      -0.0046998574,
      0.012906413,
      -0.05841779,
      0.020488482,
      0.008173244,
      0.061980907,
      -0.0034126986,
      0.00010087999,
      -0.04014793,
      -0.027381517,
      -0.0054514157,
      0.013783838,
      -0.014156272,
      0.045075897,
      -0.06576567,
      0.0040336065,
      -0.06181167,
      0.07460339,
      0.004426121,
      -0.031148745,
      -0.019548124,
      0.048100427,
      0.03171939
    ],
    [
      -0.047401484,
      0.07622645,
      -0.058113143,
      0.034451187,
      -0.058251206,
      -0.05220879,
      0.070036985,
      -0.017775116,
      0.02126776,
      -0.038777284,
      0.020961046,
      0.07413598,
      -0.027505875,
      0.07588372,
      -0.043823816,
      0.016164633,
      -0.0047486224,
      0.017020363,
      0.044255655,
      0.058094233,
      0.008713228,
      0.06403359,
      0.0576316,
      -0.030497618,
      0.045684226,
      -0.01563714,
      0.002649869,
      -0.04523662,
      -0.0038325957,
      0.07506774,
      -0.030820273,
      0.07243234,
      -0.043917574,
      -0.034614112
    ],
    [
      0.06680254,
      0.015566939,
      0.07040959,
      -0.061854515,
      -0.07953628,
      0.062217657,
      0.066938646,
      -0.026264733,
      0.025938695,
      -0.054214254,
      -0.06534712,
      -0.011018334,
      0.021876402,
      0.007155449,
      -0.051370956,
      -0.046041373,
      -0.022531925,
      0.0726389,
      -0.0025286356,
      -0.02394984,
      0.0039037874,
      -0.043063942,
      0.009160967,
      0.008271023,
      -0.041771784,
      0.034589767,
      0.08945949,
      -0.028435268,
      -0.037893377,
      -0.051327076,
      0.042116202,
      0.0029662694,
      -0.00043395828,
      -0.0073582213
    ],
    [
      -0.054373715,
      -0.059454583,
      0.0607421,
      0.052871324,
      0.02469737,
      -0.008920299,
      0.0013541344,
      -0.05701541,
      -0.07835608,
      -0.008159847,
      -0.054330323,
      0.026226891,
      0.0065190066,
      0.053088628,
      -0.013811298,
      0.019070944,
      0.025070565,
      0.00585799,
      0.09079554,
      -0.052949365,
      0.07537133,
      0.027865842,
      -0.020430557,
      0.05943238,
      0.036564257,
      -0.001828953,
      0.08694634,
      0.01819856,
      -0.030417383,
      -0.053835794,
      -0.017815916,
      0.039060064,
      0.037793513,
      -0.03421707
    ],
    [
      0.08190132,
      -0.07052105,
      -0.06144457,
      0.059854545,
      0.016654503,
      -0.03601582,
      0.045609415,
      -0.003777569,
      -0.05049827,
      -0.05548997,
      -0.06593676,
      0.06929551,
      0.05984626,
      0.04319233,
      0.07733308,
      0.0433506,
      0.05850336,
      0.0016007707,
      0.063996464,
      0.06985395,
      -0.021676812,
      0.010567803,
      -0.07516251,
      -0.060999494,
      -0.025900416,
      -0.07242913,
      -0.056504365,
      -0.03848519,
      -0.043876052,
      0.0053477865,
      0.081665896,
      -0.06692976,
      0.002497658,
      -0.06093003
    ],
    [
      -0.07035758,
      0.047390502,
      -0.06383365,
      -0.0040642903,
      -0.03990334,
      0.0056078574,
      -0.016429078,
      -0.006142874,
      0.06574753,
      0.054565385,
      -0.06604061,
      -0.028905258,
      0.027812175,
      0.055246554,
      0.020854127,
      -0.072155565,
      -0.04136998,
      -0.058729656,
      0.039035093,
      0.0789604,
      -0.026834246,
      0.0125242565,
      -0.025138708,
      -0.040275328,
      -0.040536206,
      0.07087768,
      -0.059758637,
      0.07071976,
      0.033064704,
      0.06592382,
      0.003990677,
      -0.087893836,
      -0.045728836,
      0.054609984
    ],
    [
      0.014729563,
      -0.034859326,
      0.030226035,
      -0.060393434,
      -0.050593782,
      -0.07604415,
      0.035081685,
      0.074020006,
      -0.008098289,
      0.01607212,
      -0.0033547205,
      0.068121456,
      -0.0717894,
      -0.028665453,
      0.047688447,
      0.010095438,
      0.055522,
      -0.009889603,
      -0.032253467,
      -0.07919989,
      -0.009251785,
      -0.009635527,
      -0.024672441,
      -0.0071603335,
      -0.047368463,
      0.040469907,
      -0.053961214,
      -0.012864608,
      -0.062671304,
      -0.016337099,
      -0.03255558,
      0.045947194,
      0.045938313,
      0.045546
    ],
    [
      0.07196687,
      -0.010994187,
      -0.024344316,
      0.037052188,
      -0.044995546,
      0.07664313,
      0.020477487,
      -0.024462286,
      -0.04220337,
      0.03474624,
      0.022418592,
      0.076727495,
      -0.034857225,
      0.04824184,
      -0.08672984,
      0.033049315,
      0.042442977,
      0.00063608494,
      -0.06955917,
      -0.040301897,
      -0.048270967,
      -0.01712823,
      -0.06275661,
      -0.009592291,
      0.065181695,
      -0.04387225,
      0.001689064,
      -0.044092942,
      0.012309954,
      0.037139162,
      -0.010896919,
      -0.057983305,
      -0.048126977,
      0.06664053
    ],
    [
      -0.051053807,
      -0.062649086,
      0.03944179,
      -0.067148075,
      0.049946807,
      0.00756316,
      0.014533995,
      0.02983204,
      -0.014096719,
      0.065453775,
      -0.07406616,
      -0.043461915,
      0.018164523,
      -0.013822415,
      0.05544044,
      -0.009745708,
      0.030728023,
      -0.034327038,
      0.07067832,
      0.037018232,
      -0.013643397,
      0.042115144,
      -0.060261406,
      0.0053174784,
      -0.072832875,
      0.03321295,
      0.07564277,
      0.09424381,
      -0.033848736,
      -0.05221288,
      0.08291748,
      -0.035134677,
      -0.050086014,
      -0.020068225
    ],
    [
      0.009639087,
      -0.07971911,
      0.07815192,
      -0.046013426,
      0.01184199,
      -0.07032073,
      0.03709638,
      -0.061503693,
      0.04441081,
      0.05050813,
      0.039102554,
      -0.08563324,
      0.01457686,
      -0.045927238,
      0.06212919,
      0.044895794,
      -0.02487284,
      0.038393028,
      0.02086113,
      -0.055341426,
      0.025057683,
      0.0017984764,
      0.027647115,
      -0.07693973,
      -0.031966284,
      -0.04124738,
      -0.047065455,
      0.02831208,
      0.069562845,
      0.056755412,
      0.02865605,
      0.06832295,
      0.009162436,
      0.015921364
    ],
    [
      -0.07242596,
      0.053081054,
      0.015031447,
      -0.018922832,
      -0.038576882,
      0.06302699,
      -0.050371565,
      0.05379137,
      -0.021213414,
      -0.07002267,
      -0.053145222,
      0.043826297,
      -0.07692731,
      0.0049279346,
      -0.07811467,
      0.065447174,
      0.047045317,
      -0.074150704,
      0.040779714,
      -0.0055494024,
      0.03370755,
      -0.062004846,
      0.066750444,
      0.01876519,
      0.033890735,
      0.0017211769,
      0.027710123,
      -0.05579926,
      -0.059554778,
      0.022434283,
      0.068159476,
      0.046917822,
      -0.059743732,
      0.08425622
    ],
    [
      0.0415527,
      0.016738314,
      0.09003703,
      -0.014667303,
      -0.053273868,
      0.030274699,
      0.066649586,
      -0.06552233,
      0.06674204,
      -0.034261245,
      -0.05678155,
      0.043329686,
      -0.042223334,
      -0.04198024,
      0.041749023,
      0.0033071372,
      -0.021541093,
      0.07724117,
      -0.046512492,
      0.013898187,
      -0.0035772128,
      0.06204077,
      0.023712939,
      0.0763706,
      0.023492737,
      -0.011580571,
      0.02846077,
      0.024135448,
      -0.078757554,
      0.04457596,
      -0.026263382,
      0.072994165,
      -0.029461328,
      0.0026177887
    ],
    [
      0.0023327835,
      0.053799007,
      -0.027726818,
      0.034950197,
      0.055633802,
      -0.068740085,
      0.0029506853,
      -0.03976379,
      -0.027698357,
      0.008892071,
      -0.058946297,
      -0.025303194,
      -0.058977656,
      0.01790219,
      -0.039301075,
      0.0044694343,
      -0.0681602,
      -0.07424988,
      0.03978244,
      -0.042101238,
      0.0033337467,
      0.024830122,
      -0.023017267,
      0.027879892,
      -0.0820323,
      0.05449109,
      -0.0649725,
      0.047642555,
      0.020989312,
      0.05529737,
      0.009329371,
      0.0007448515,
      0.059850454,
      0.011784322
    ],
    [
      -0.029148797,
      -0.032958742,
      -0.000108553126,
      0.041213665,
      -0.084830835,
      -0.05456431,
      -0.033141356,
      0.0538883,
      -0.04705759,
      0.018154504,
      -0.03804793,
      -0.04576952,
      0.06613936,
      0.0751838,
      -0.06287523,
      -0.07385942,
      0.07298729,
      0.038150355,
      0.073595405,
      0.0424616,
      0.030589383,
      0.050951708,
      0.065148145,
      0.012031074,
      0.055674173,
      0.033448514,
      -0.06353876,
      -0.039299034,
      -0.012590737,
      0.016250888,
      0.06574493,
      0.016670907,
      -0.026405234,
      -0.0116871465
    ],
    [
      -0.042844728,
      0.044573143,
      -0.030619215,
      -0.080755666,
      0.03358948,
      0.061115928,
      -0.07165343,
      0.06489461,
      -0.011486696,
      0.001661129,
      0.04372527,
      -0.00390014,
      -0.0073256865,
      0.06636712,
      0.044905268,
      0.023780119,
      0.03312386,
      -0.08905286,
      0.01866726,
      -0.06025378,
      -0.0051202467,
      -0.029926473,
      -0.02170792,
      -0.017272808,
      0.020187667,
      -0.06832519,
      0.05990774,
      0.055106826,
      -0.07025978,
      -0.05363377,
      -0.01124983,
      -0.020619053,
      -0.035289455,
      -0.0408023
    ],
    [
      0.029987076,
      0.017340839,
      -0.07008095,
      -0.05492115,
      -0.050712,
      -0.059899285,
      0.061478585,
      0.06755833,
      0.061802223,
      -0.030395912,
      0.07799588,
      -0.028053747,
      0.005942054,
      -0.07930696,
      -0.057657,
      0.06541217,
      -0.040256117,
      -0.056516465,
      0.053520806,
      0.017101083,
      0.06718624,
      0.015331408,
      -3.5510628e-05,
      -0.042055596,
      0.019677475,
      -0.05146805,
      -0.07225384,
      0.042081807,
      0.07828534,
      0.07376731,
      0.012067032,
      -0.038985617,
      -0.044396207,
      0.022672769
    ],
    [
      0.029340375,
      -0.06993632,
      0.045247458,
      0.06643293,
      0.07427298,
      0.008324567,
      0.013221778,
      -0.0027409303,
      0.0035147197,
      0.08096324,
      0.043010637,
      0.04449043,
      -0.056563552,
      -0.083431706,
      -0.0061950386,
      -0.03857163,
      0.0534554,
      0.02087755,
      0.026491234,
      -0.07595262,
      -0.07080485,
      -0.042133104,
      0.07364047,
      0.01477043,
      -0.037442908,
      -0.010851272,
      -0.036249105,
      0.07408012,
      -0.039554507,
      -0.0025341664,
      -0.009738564,
      -0.016516332,
      -0.054061808,
      0.022267617
    ],
    [
      0.039450012,
      0.07246293,
      -0.013295924,
      0.035262197,
      0.04179726,
      0.067708895,
      0.055382162,
      0.0045396164,
      0.06344233,
      0.0218493,
      0.042740185,
      0.0073807305,
      -0.08044452,
      0.06270273,
      -0.045053508,
      -0.008298015,
      -0.07241011,
      -0.016043767,
      0.025533227,
      0.06341727,
      -0.049779553,
      0.027543014,
      0.0541436,
      0.076010965,
      0.0010030096,
      0.08113134,
      -0.03381778,
      -0.033973772,
      -0.06321194,
      0.052057043,
      0.00743637,
      -0.0012708732,
      -0.035349533,
      0.038385335
    ],
    [
      -0.026989346,
      0.04226426,
      0.078904055,
      0.033917442,
      0.029574394,
      -0.010429741,
      0.054055825,
      -0.08341876,
      -0.031136198,
      0.022549694,
      0.061688688,
      0.070783384,
      -0.030504987,
      -0.060732186,
      0.084241025,
      0.0136170555,
      -0.046131793,
      0.057240777,
      0.04691489,
      0.03872231,
      0.024795132,
      0.078578435,
      -0.081482835,
      0.023539199,
      -0.079681665,
      0.018838001,
      -0.028501721,
      0.033538412,
      -0.013639625,
      0.058527455,
      0.053378098,
      0.053752027,
      0.047875382,
      0.030143915
    ],
    [
      -0.02454687,
      0.015196919,
      -0.07673712,
      -0.07998498,
      -0.03069169,
      0.024489224,
      -0.07323464,
      -0.07809567,
      0.01681985,
      -0.0025609732,
      -0.04303945,
      0.056138135,
      0.009541713,
      0.07035989,
      -0.079569355,
      0.040023647,
      -0.04900682,
      0.02302102,
      -0.059513286,
      -0.046871647,
      0.062513135,
      0.028639011,
      -0.028991222,
      0.06261926,
      0.06972132,
      -0.023999311,
      -0.05696359,
      0.015474126,
      -0.047520973,
      0.03265377,
      -0.024720307,
      0.059338666,
      -0.026680376,
      0.065362655
    ],
    [
      0.055686437,
      0.057742663,
      0.069450654,
      0.0016489476,
      0.05335746,
      -0.076317914,
      0.04956106,
      0.02800373,
      -0.0019833297,
      0.05765689,
      0.01753252,
      0.0746895,
      0.049025767,
      -0.0065733492,
      0.058274366,
      -0.02528429,
      0.047793217,
      0.0073001757,
      -0.023436006,
      0.07811431,
      0.0030666888,
      0.009464487,
      0.017001659,
      0.057575263,
      0.019750208,
      0.041804753,
      -0.06647191,
      0.06639073,
      0.0050711706,
      0.0437975,
      -0.029985901,
      0.037773564,
      0.013461404,
      -0.07676745
    ],
    [
      -0.069861405,
      0.07810148,
      -0.04419515,
      0.009017326,
      0.02448839,
      -0.024558257,
      -0.058801085,
      0.037910298,
      -0.040225968,
      0.040065795,
      -0.07327038,
      0.008722357,
      -0.021148406,
      0.0738366,
      -0.06854583,
      -0.07567244,
      0.052985005,
      -0.015986934,
      -0.036779508,
      -0.018959168,
      0.0020601377,
      0.07651379,
      0.035568267,
      -0.07357323,
      -0.006675899,
      -0.053179413,
      0.010474369,
      -0.080548614,
      -0.008888587,
      0.02344232,
      -0.019657873,
      -0.053650573,
      -0.028480157,
      0.052001588
    ],
    [
      0.07835254,
      0.06069655,
      0.060483728,
      -0.07069811,
      0.034763303,
      -0.06587437,
      -0.071144484,
      -0.02032575,
      0.004085823,
      0.0021500285,
      -0.07638647,
      0.05199491,
      0.035879176,
      -0.01381954,
      0.07693723,
      0.040080447,
      -0.0596109,
      0.03528063,
      -0.027758945,
      -0.04408634,
      0.026694069,
      -0.043193176,
      -0.047182407,
      -0.038545705,
      0.0077064433,
      -0.019601159,
      0.04270297,
      -0.08063974,
      -0.003872368,
      0.036520254,
      0.06664626,
      0.0026873106,
      0.010771682,
      -0.015905453
    ],
    [
      -0.0047998913,
      0.069902666,
      -0.064274125,
      0.03919421,
      -0.04080666,
      -0.03746064,
      -0.0119515825,
      0.039312456,
      -0.067079246,
      0.05854294,
      -0.06601697,
      -0.04567194,
      0.046782892,
      -0.08366784,
      -0.063930914,
      0.037702844,
      0.036310036,
      0.072291695,
      -0.014244674,
      -0.005048306,
      -0.026270054,
      0.063798286,
      -0.041726857,
      0.006034837,
      0.068855,
      -0.04304943,
      0.07741812,
      -0.012791299,
      0.07109636,
      -0.05251016,
      0.02359775,
      -0.056553602,
      -0.06559547,
      0.038714413
    ],
    [
      -0.07779187,
      -0.030432932,
      -0.054645207,
      0.024859674,
      -0.095266394,
      0.015222069,
      0.01755586,
      0.017711006,
      -0.022413956,
      0.047112312,
      0.019367937,
      -0.052064747,
      0.0077869007,
      -0.05997692,
      -0.021186892,
      -0.02465421,
      -0.028679881,
      0.03583508,
      0.005500337,
      -0.011279384,
      -0.014330814,
      0.08525988,
      0.03926477,
      0.067722365,
      -0.0118736485,
      0.0020359047,
      0.0663982,
      -0.02969125,
      -0.06404836,
      -0.049213305,
      0.046202987,
      0.06776926,
      -0.008695877,
      0.034802005
    ],
    [
      0.058218684,
      -0.009133733,
      -0.04431405,
      -0.006993087,
      -0.016268356,
      0.00051115913,
      -0.071033,
      -0.028524127,
      0.035541054,
      0.027976971,
      -0.055734396,
      -0.014774213,
      0.05750223,
      0.083326146,
      -0.056174006,
      -0.051352233,
      0.03420475,
      -0.048949983,
      0.0394086,
      0.04820392,
      0.0116270995,
      -0.046082016,
      0.052457966,
      0.04617006,
      0.0029169393,
      0.0071872603,
      -0.016393641,
      -0.012535375,
      0.056761798,
      -0.00090200023,
      0.024044843,
      0.014090655,
      0.028022725,
      -0.0045708483
    ],
    [
      0.010637912,
      -0.07608333,
      0.0072553307,
      0.0722862,
      0.063808344,
      -0.0011379337,
      -0.05790387,
      0.022041146,
      0.062625594,
      0.06555571,
      -0.006846548,
      0.077836186,
      -0.0003249722,
      -0.05218312,
      -0.007823641,
      -0.028034793,
      -0.0344774,
      0.027326865,
      0.05057134,
      0.06769286,
      -0.017857876,
      -0.071743585,
      -0.055379663,
      -0.078961365,
      0.00015532711,
      -0.01207497,
      0.03054756,
      0.038383067,
      0.038344566,
      -0.03068689,
      -0.01653028,
      -0.02595972,
      -0.014505283,
      0.05174426
    ],
    [
      0.0015063266,
      -0.05402826,
      0.018859548,
      -0.03134131,
      -0.0034760095,
      -0.028189503,
      -0.05753306,
      -0.074236244,
      -0.029417548,
      0.0008398443,
      -0.058485925,
      0.08074251,
      0.03961266,
      -0.008550324,
      0.011022282,
      -0.08682938,
      0.025168521,
      -0.062420513,
      -0.020828323,
      -0.049071874,
      0.016468868,
      -0.02647962,
      0.008807554,
      0.057463117,
      -0.008030486,
      0.017749343,
      -0.051140085,
      -0.023757773,
      0.003248796,
      -0.038866863,
      -0.0066428133,
      0.049926717,
      0.017429031,
      -0.000872531
    ],
    [
      -0.0018748158,
      0.013285146,
      -0.075487114,
      0.025743196,
      -0.0074806684,
      -0.024604654,
      -0.05886548,
      -0.039504692,
      0.072696716,
      -0.035062645,
      0.014401206,
      -0.047850184,
      -0.052949242,
      0.05329278,
      -0.0042597367,
      0.04681416,
      -0.055393275,
      -0.035178743,
      0.017369619,
      0.024677671,
      0.03631503,
      -0.038970232,
      -0.024648039,
      0.04600489,
      0.054202195,
      -0.0006840404,
      -0.056903906,
      0.065923594,
      0.016310163,
      -0.024304437,
      -0.050384473,
      0.035159707,
      -0.025461901,
      -0.0014891536
    ],
    [
      -0.044066146,
      -0.03644755,
      0.005021778,
      0.010264287,
      -0.0038659645,
      0.01938044,
      0.0155882565,
      -0.08029208,
      0.08298736,
      -0.026151488,
      0.022668459,
      0.001549516,
      -0.04449937,
      -0.0010213916,
      -0.039508604,
      -0.055655394,
      0.06784455,
      0.06989283,
      0.09089684,
      -0.017270776,
      -0.06760701,
      -0.052306533,
      -0.09682933,
      -0.04523637,
      -0.0043384507,
      -0.0699543,
      0.09914564,
      0.13281077,
      -0.01479445,
      -0.063247696,
      -0.03275143,
      0.05389311,
      -0.026235547,
      -0.02348606
    ],
    [
      -0.058383945,
      -0.01733598,
      -0.005220415,
      -0.0864946,
      -0.028369583,
      0.0053585432,
      -0.07195846,
      0.03000962,
      -0.07164283,
      -0.023892375,
      0.03571329,
      -0.026306747,
      -0.08090273,
      0.014870001,
      0.06713321,
      -0.006456709,
      -0.045550644,
      -0.014044307,
      -0.04280763,
      0.0042766314,
      -0.026223639,
      -0.08318475,
      -0.08697933,
      -0.023794696,
      -0.03758558,
      0.057950683,
      0.019269442,
      0.18383375,
      -0.055925004,
      0.0002733901,
      0.01635247,
      0.038698964,
      0.022676267,
      -0.021890722
    ],
    [
      -0.047397316,
      -0.061505616,
      -0.055413082,
      0.031468876,
      -0.078096434,
      0.008392043,
      0.043612503,
      0.04528997,
      0.026263645,
      -0.03186758,
      -0.055400472,
      -0.0953581,
      0.035902914,
      -0.07595516,
      -0.012052953,
      0.04134115,
      -0.033023253,
      0.050518274,
      -0.050778463,
      -0.015209944,
      0.022462092,
      0.037439294,
      0.04445513,
      0.0046829786,
      -0.08223605,
      0.06245495,
      0.12222495,
      0.13046688,
      0.0113634085,
      0.032044254,
      -0.078390524,
      0.05973488,
      0.09844766,
      0.0022560614
    ],
    [
      -0.015637651,
      -0.14708236,
      0.046076935,
      -0.030966997,
      -0.09739305,
      -0.03995252,
      0.011800309,
      0.010300168,
      -0.051471855,
      -0.015980043,
      0.0534257,
      0.019668411,
      0.047180023,
      -0.044001874,
      -0.013574296,
      0.16729106,
      -0.055885322,
      0.12685996,
      -0.029313799,
      -0.015759038,
      -0.0070782434,
      -0.016645204,
      -0.009656482,
      0.049414475,
      -0.0724889,
      -0.06519007,
      0.052035194,
      0.1436943,
      -0.09056973,
      -0.120573334,
      0.056410156,
      0.0387561,
      0.035853975,
      0.044970784
    ],
    [
      0.008622426,
      -0.034856062,
      0.14824942,
      -0.11467965,
      -0.0565198,
      0.036055487,
      0.040491622,
      -0.10557678,
      -0.09434347,
      -0.0966243,
      -0.08297327,
      -0.1047902,
      -0.014365415,
      0.0046683173,
      -0.011323908,
      0.15850897,
      0.021250235,
      0.13423648,
      -0.051367413,
      -0.13213138,
      -0.0035840496,
      -0.011975639,
      0.03949452,
      -0.0012237934,
      -0.044876162,
      -0.03669529,
      0.100016326,
      0.09277838,
      0.035530273,
      -0.123114,
      0.09025665,
      -0.0510633,
      0.13137807,
      -0.010096619
    ],
    [
      -0.066683955,
      -0.054217685,
      0.13345402,
      -0.009299299,
      -0.049616124,
      -0.077375285,
      0.114173785,
      -0.00078179326,
      -0.10162269,
      0.00010689879,
      0.0019178971,
      -0.069603264,
      -0.010607453,
      0.0013088725,
      -0.06916495,
      0.030715164,
      0.024183474,
      0.08518382,
      -0.04277484,
      -0.082792476,
      -0.1025695,
      0.048800442,
      -0.021183256,
      -0.03857605,
      0.040453136,
      -0.049453247,
      -0.0006743975,
      0.0485698,
      -0.050661847,
      -0.06787454,
      0.05550749,
      0.051570285,
      -0.0007361772,
      0.12546736
    ],
    [
      -0.07528257,
      -0.069341846,
      0.1483649,
      0.02853757,
      -0.0048291925,
      -0.07529623,
      0.069456466,
      -0.08737611,
      -0.030303879,
      -0.03128484,
      0.01923633,
      -0.08652293,
      -0.027273063,
      0.017187517,
      0.022812465,
      0.024835426,
      0.01982524,
      0.045974202,
      -0.059829973,
      -0.058648113,
      0.014055352,
      -0.08527296,
      0.040418513,
      -0.07883555,
      -0.042235956,
      -0.045094136,
      -0.003848062,
      -0.023111723,
      0.08070371,
      -0.12978789,
      0.043232266,
      0.013230925,
      0.12254183,
      0.06501852
    ],
    [
      -0.052928712,
      -0.061185427,
      0.15206663,
      0.011804733,
      0.01914288,
      -0.08108373,
      0.018027473,
      -0.06844353,
      0.008587339,
      0.019948525,
      -0.059222292,
      -0.0041873287,
      -0.001158874,
      0.038592275,
      -0.05667166,
      -0.09677194,
      -0.07528878,
      0.07791428,
      0.023725746,
      -0.10717695,
      -0.01722691,
      0.05339791,
      -0.026253933,
      0.048389543,
      0.034811493,
      -0.025422396,
      0.05312634,
      -0.02611926,
      -0.014451085,
      -0.088323236,
      0.012778861,
      0.03926986,
      0.001495051,
      0.014412939
    ],
    [
      -0.036232363,
      -0.07931625,
      0.10268653,
      0.011973624,
      0.026183391,
      0.03225577,
      0.050484058,
      0.05314259,
      -0.020933552,
      0.006668914,
      -0.057947066,
      0.026897922,
      0.06790982,
      -0.058738377,
      -0.054377947,
      -0.07789707,
      0.0064820005,
      0.0021029438,
      -0.010633833,
      0.044260737,
      -0.06709206,
      0.014487748,
      -0.03754783,
      0.030350028,
      0.012886403,
      -0.0150944935,
      0.078145444,
      -0.038108323,
      -0.021000175,
      -0.08821196,
      0.108507864,
      0.022233054,
      0.012641457,
      -0.050808392
    ],
    [
      0.053391263,
      0.06299448,
      -0.00078613113,
      -0.052320242,
      0.0008911956,
      0.0047660302,
      -0.01002353,
      0.057784375,
      0.09455816,
      0.07350352,
      -0.005444004,
      0.023406131,
      0.05325533,
      -0.002338256,
      -0.03260989,
      -0.067789644,
      -0.056302365,
      0.052511588,
      0.026598215,
      0.03050898,
      0.022072626,
      0.065079756,
      -0.05038873,
      -0.04176801,
      -0.03835363,
      0.053946353,
      -0.022744168,
      -0.0091821235,
      0.07246789,
      0.07204905,
      0.009853238,
      0.07691112,
      -0.03665792,
      -0.07800411
    ],
    [
      0.057896804,
      -0.033910457,
      0.090276234,
      -0.040548712,
      -0.07116702,
      -0.0110894935,
      -0.04855778,
      0.018408818,
      0.06501027,
      -0.0048109125,
      -0.04732323,
      0.07438662,
      -0.06946936,
      -0.011050236,
      0.030668126,
      -0.030060599,
      -0.080103144,
      -0.006952518,
      0.053790506,
      -0.02582285,
      -0.05509684,
      -0.06009563,
      -0.01187985,
      -0.07531163,
      0.010545182,
      -0.039318725,
      0.046408273,
      0.011884855,
      0.025860561,
      0.04306953,
      -0.0144600235,
      -0.056094494,
      -0.030497788,
      -0.08928676
    ],
    [
      0.068943135,
      -0.052116625,
      -0.008200557,
      -0.06858165,
      -0.032250006,
      -0.014260942,
      -0.029389845,
      0.04125624,
      0.028155664,
      -0.034591686,
      0.04868069,
      -0.070504546,
      0.058948174,
      0.034263823,
      0.023091666,
      -0.0716691,
      -0.048485875,
      -0.05835277,
      0.022039207,
      0.07180488,
      -0.020350551,
      -0.014553774,
      0.0722348,
      0.0011043769,
      -0.03793209,
      0.052262858,
      0.048712958,
      -0.04649691,
      -0.011712554,
      -0.0494798,
      -0.014619022,
      -0.049065173,
      -0.023353804,
      -0.029332837
    ],
    [
      -0.003771483,
      -0.056569748,
      -0.073054604,
      -0.032946628,
      0.060777087,
      -0.03675699,
      0.00048597943,
      -0.007860431,
      0.0027214075,
      0.0018239357,
      0.09377948,
      -0.07163382,
      -0.07252298,
      -0.06953848,
      -0.04662151,
      -0.0692606,
      0.028425291,
      0.05113853,
      -0.049477343,
      0.022232128,
      0.08947373,
      -0.06453944,
      0.07442345,
      0.0859579,
      -0.01489467,
      0.003158823,
      0.06607203,
      0.04143864,
      0.019223249,
      0.06858305,
      0.029312689,
      0.08439651,
      -0.058197536,
      -0.08190137
    ],
    [
      -0.07576412,
      0.059739858,
      -0.07197176,
      -0.07820688,
      -0.06865844,
      0.009779787,
      -0.0785405,
      0.045619387,
      -0.033213466,
      0.06276508,
      0.08485731,
      0.030379634,
      0.034337386,
      0.0035465618,
      0.026791234,
      0.054232582,
      0.06247205,
      0.061423536,
      -0.009591561,
      -0.0484658,
      0.04586606,
      -0.04198647,
      0.043804288,
      -0.0143338395,
      -0.0073214797,
      0.06421179,
      -0.06496411,
      -0.05114697,
      0.013151102,
      0.041521735,
      0.004575194,
      -0.06332236,
      0.02276856,
      -0.05718211
    ],
    [
      0.01283683,
      0.035843797,
      -0.042395167,
      0.0078408485,
      0.06618051,
      -0.08156346,
      0.042904172,
      0.009961335,
      -0.017541865,
      -0.010724742,
      -0.009610435,
      0.037598543,
      0.04221301,
      0.049249273,
      -0.011159557,
      0.011942615,
      -0.014160915,
      -0.05410192,
      0.0776976,
      0.045434788,
      0.0629357,
      -0.05490073,
      0.04951455,
      -0.03857582,
      0.05021906,
      0.0017229912,
      -0.046748284,
      0.027066514,
      -0.07201601,
      -0.010678449,
      -0.04628238,
      -0.0019584338,
      0.07055659,
      -0.018677043
    ],
    [
      0.0049787895,
      0.029752681,
      -0.07860016,
      -0.07358205,
      0.04682621,
      -0.08469473,
      0.07352045,
      0.056291673,
      0.060525652,
      -0.042602435,
      -0.019458592,
      0.055653915,
      -0.025094777,
      0.05357887,
      -0.07025429,
      0.033739265,
      -0.027170265,
      0.05299947,
      -0.049636796,
      -0.012505949,
      -0.015582473,
      -0.041515198,
      0.043541137,
      -0.03922466,
      -0.061878998,
      -0.07118671,
      -0.046308186,
      -0.021629697,
      0.0591191,
      -0.03681111,
      0.017247628,
      -0.05290372,
      0.058585364,
      -0.0791215
    ],
    [
      0.0558481,
      -0.004934266,
      -0.025089912,
      -0.016416274,
      -0.042840205,
      0.03551791,
      -0.08085658,
      -0.024497725,
      -0.074656956,
      -0.06287463,
      0.019165404,
      -0.024820045,
      -0.02646283,
      0.006141126,
      -0.014847808,
      0.021752872,
      0.028718255,
      -0.058368236,
      0.060415052,
      0.01942578,
      -0.04397187,
      0.025698714,
      0.005586207,
      -0.05863452,
      -0.047753204,
      0.047101937,
      0.026401818,
      -0.012206122,
      -0.015014179,
      -0.07455685,
      0.045266084,
      -0.03939834,
      -0.01660294,
      0.0058118105
    ],
    [
      -0.07911417,
      0.07321086,
      0.045080654,
      0.036518052,
      0.025300115,
      -0.045635246,
      0.023979343,
      0.02783893,
      -0.07886842,
      0.048455022,
      -0.015929766,
      0.06524924,
      0.0040923953,
      -0.0063962713,
      0.019397981,
      0.012736186,
      0.07485267,
      0.022223786,
      0.0023812577,
      0.07917551,
      0.011384323,
      0.06878971,
      0.026894882,
      0.0389561,
      0.0346767,
      0.044428043,
      -0.029839113,
      0.059820436,
      0.01624988,
      0.023242287,
      0.056350045,
      -0.07045473,
      0.062887184,
      -0.03294152
    ],
    [
      -0.0073190317,
      0.032595962,
      0.022138767,
      -0.041513257,
      -0.015523822,
      0.0707817,
      0.0303332,
      -0.07806129,
      0.05870806,
      -0.08107389,
      -0.0442898,
      -0.030330839,
      0.08092384,
      -0.060024552,
      -0.0029599364,
      0.06712153,
      -0.0043244087,
      -0.0061970972,
      -0.012803392,
      0.026520131,
      0.074975014,
      -0.0026427482,
      -0.037441693,
      -0.026397955,
      -0.08891919,
      -0.037732106,
      -0.056365665,
      -0.07632588,
      -0.057352055,
      -0.07315873,
      -0.031871423,
      -0.06254198,
      0.021196157,
      0.056934174
    ],
    [
      -0.038025137,
      0.004049858,
      0.003917023,
      0.044969518,
      -0.046306327,
      0.046648636,
      0.058089495,
      0.057406887,
      -0.09332199,
      -0.030268352,
      0.02926541,
      0.0224592,
      -0.02603236,
      0.027347045,
      -0.05675343,
      -0.1012723,
      0.065110795,
      -0.024875302,
      0.13402307,
      0.0046670632,
      0.112417266,
      0.096413516,
      0.030365491,
      -0.025398962,
      0.06618494,
      -0.025099058,
      -0.050183646,
      -0.04168141,
      0.011334732,
      -0.05961686,
      -0.004502304,
      -0.026205681,
      -0.046379156,
      -0.05052136
    ],
    [
      -0.03543089,
      0.023950072,
      0.06908399,
      -0.04859649,
      0.027081894,
      -0.04689061,
      -0.018861402,
      0.09193723,
      -0.04507247,
      0.042228468,
      -0.025423268,
      -0.064125575,
      0.022692705,
      0.0061992733,
      -0.08647468,
      -0.02517434,
      0.008716499,
      -0.10920675,
      0.18128574,
      -0.011624622,
      0.0995168,
      -0.035442878,
      0.039320264,
      0.0916966,
      -0.03871534,
      -0.078653134,
      -0.008970111,
      -0.017738758,
      -0.041423053,
      -0.06550372,
      -0.034621567,
      0.10300334,
      -0.061132178,
      0.030971395
    ],
    [
      -0.093297504,
      0.14057207,
      -0.0036265508,
      0.124648355,
      -0.05102593,
      0.033553213,
      -0.011438903,
      0.09364838,
      -0.033826843,
      -0.044374514,
      -0.0100980345,
      0.078078605,
      0.034670867,
      0.027786018,
      -0.069491714,
      -0.11101052,
      0.05801976,
      -0.14170119,
      0.004334976,
      0.024504237,
      0.071352296,
      -0.008216589,
      0.085532136,
      0.09372867,
      0.05808713,
      0.021561246,
      -0.035364307,
      0.0555724,
      -0.038843833,
      0.011271841,
      -0.12733343,
      0.08425865,
      -0.12760368,
      -0.085082054
    ],
    [
      -0.059578687,
      -0.011150883,
      -0.106610306,
      0.101912156,
      0.08995358,
      0.12573451,
      -0.00912343,
      0.06854321,
      0.037993893,
      0.0025187586,
      0.06406921,
      0.0225924,
      0.011121909,
      0.017370231,
      0.0490559,
      -0.1246652,
      0.06287083,
      -0.16446143,
      0.022776376,
      0.04806127,
      -0.0234047,
      -0.03809826,
      0.046643104,
      0.029799726,
      -0.00058867404,
      -0.14498685,
      0.013873314,
      0.10753209,
      -0.10916996,
      0.015253667,
      -0.0841319,
      -0.0081513245,
      -0.03263874,
      -0.15348502
    ],
    [
      -0.09373807,
      -0.025067395,
      -0.04325605,
      0.11726762,
      -0.00804944,
      0.101770535,
      -0.002243056,
      0.0041014277,
      0.046387374,
      -0.0089916615,
      -0.036711775,
      0.13636123,
      -0.04857937,
      0.08565543,
      0.0021302074,
      -0.11876995,
      -0.022006325,
      -0.019431898,
      -0.0020439266,
      0.031538483,
      0.01575442,
      -0.12344243,
      0.07198529,
      -0.04895104,
      -0.037622236,
      -0.120095536,
      0.05607231,
      0.08177356,
      -0.10559557,
      0.059602477,
      -0.017456975,
      0.0856061,
      -0.07886766,
      -0.028719902
    ],
    [
      0.028673988,
      0.04404735,
      -0.105637774,
      0.043247838,
      0.110356964,
      0.053871028,
      -0.034304257,
      -0.10166356,
      0.12914868,
      -0.04841207,
      -0.0258873,
      0.052461505,
      -0.026213473,
      -0.019580802,
      0.016116409,
      0.0058356384,
      0.10035453,
      -0.027281359,
      -0.006152169,
      -0.12703836,
      -0.02414948,
      -0.05656807,
      -0.11692867,
      -0.1360999,
      -0.042523194,
      -0.12538828,
      -0.035218887,
      0.099957585,
      -0.07174851,
      0.09626467,
      -0.10681909,
      0.08993219,
      0.05013639,
      0.01194546
    ],
    [
      -0.0137504535,
      0.09376987,
      0.030695187,
      0.02621765,
      0.06490447,
      0.07000601,
      -0.016141,
      -0.08839188,
      0.010684154,
      -0.08079998,
      -0.092938356,
      -0.06973778,
      -0.085475355,
      -0.022428544,
      -0.026853168,
      -0.023506826,
      0.10096189,
      -0.013787789,
      0.006592444,
      -0.06889381,
      -0.024616035,
      -0.054178044,
      -0.051305026,
      0.022787886,
      0.06305147,
      0.022703625,
      0.10084772,
      -0.030681089,
      -0.0074516367,
      0.027087059,
      -0.06459373,
      0.04999704,
      0.028954547,
      -0.039736763
    ],
    [
      -0.04976619,
      0.08757564,
      -0.010662711,
      0.114848584,
      -0.03755166,
      0.06362031,
      0.044908162,
      -0.00996551,
      -0.03710915,
      0.124562696,
      -0.038789783,
      -0.053987075,
      -0.11688381,
      -0.00020569579,
      0.02828073,
      0.0712804,
      0.112802535,
      -0.00925367,
      -0.019197581,
      -0.052752223,
      0.003781992,
      0.011033071,
      -0.0067712944,
      -0.10122011,
      0.013151436,
      0.00940065,
      -0.017397739,
      -0.037066773,
      -0.028698416,
      0.06954536,
      -0.042925477,
      0.021552175,
      -0.036915146,
      -0.041111577
    ],
    [
      -0.047574226,
      0.007234969,
      0.004713936,
      0.055707455,
      0.057606556,
      0.0688175,
      -0.018061668,
      -0.04979938,
      0.05989079,
      0.01041939,
      -0.088428505,
      -0.043712594,
      -0.019725813,
      -0.07281073,
      -0.016684147,
      0.08066092,
      0.048587706,
      0.01295214,
      0.09161591,
      -0.07523928,
      -0.051953606,
      -0.05217958,
      -0.0132728405,
      0.011877727,
      0.10418019,
      -0.024267096,
      0.072315596,
      -0.03577676,
      -0.023635099,
      0.04706966,
      0.06226713,
      0.05297656,
      -0.043812066,
      -0.0434163
    ],
    [
      0.11154069,
      -0.029935503,
      0.02731175,
      0.10731113,
      0.011547152,
      0.119714774,
      0.06868947,
      -0.10870181,
      -0.05736343,
      0.06879359,
      -0.04141473,
      -0.17132491,
      0.005716106,
      -0.13520953,
      -0.020679226,
      -0.030870283,
      0.0321943,
      -0.0051259175,
      -0.010954881,
      -0.18388267,
      -0.030853722,
      -0.11984841,
      -0.0888626,
      -0.12482239,
      0.09068968,
      0.03659988,
      -0.029899413,
      -0.009055687,
      -0.051625412,
      0.08432849,
      -0.014338176,
      0.07077378,
      -0.0051494883,
      0.07401361
    ],
    [
      -0.0036635846,
      0.021509051,
      0.09268763,
      -0.05106842,
      0.029708927,
      0.086728044,
      0.05361322,
      -0.046922415,
      -0.05071844,
      -0.0025945632,
      -0.05170363,
      -0.03893489,
      -0.10595589,
      0.0058974624,
      0.097130425,
      0.072493985,
      -0.026280027,
      0.03947755,
      0.066099465,
      -0.15265076,
      -0.013358169,
      -0.10743104,
      -0.030706955,
      -0.0016755436,
      0.010548166,
      0.107978754,
      0.01352536,
      0.08867671,
      0.009284783,
      0.081204675,
      0.05388265,
      0.029504837,
      0.024486555,
      0.009316848
    ],
    [
      0.028444808,
      0.10124398,
      0.07939887,
      -0.06604946,
      0.0028748491,
      0.011916594,
      0.08221849,
      -0.10803043,
      -0.017061446,
      -0.017227244,
      -0.04701436,
      -0.0662585,
      -0.115909606,
      -0.060607623,
      0.072875164,
      -0.0023788523,
      0.025306018,
      0.081195064,
      -0.009630893,
      -0.010698344,
      -0.06445199,
      0.022438752,
      0.0037879685,
      -0.10179907,
      -0.05055001,
      0.025945228,
      -0.010475289,
      0.07748339,
      -0.08168314,
      0.04713573,
      0.028279888,
      0.0064321295,
      0.046096362,
      -0.008684048
    ],
    [
      0.046475813,
      0.0003085011,
      0.039523095,
      -0.045766026,
      0.08556183,
      0.11556618,
      0.019885013,
      -0.03178922,
      0.08411564,
      -0.024951568,
      -0.09172611,
      -0.16659002,
      -0.02554782,
      -0.045705445,
      -0.006361642,
      0.029967556,
      -0.060672615,
      0.08996641,
      0.12564337,
      -0.15076229,
      -0.012367145,
      -0.096267775,
      -0.13036901,
      -0.11381409,
      0.0024354889,
      -0.020125654,
      -0.0014556301,
      0.004224054,
      -0.040025506,
      0.08119819,
      -0.039384056,
      0.016896157,
      -0.0071845506,
      0.048766464
    ],
    [
      -0.10834098,
      0.022727095,
      0.13110623,
      -0.108153164,
      0.018194703,
      -0.022566738,
      0.1009915,
      0.008963039,
      0.08523994,
      0.019876156,
      -0.00148318,
      -0.10190635,
      0.017659927,
      -0.066669695,
      0.01917451,
      -0.009040067,
      -0.062129047,
      0.08877297,
      0.1189212,
      -0.0762881,
      -0.0111807715,
      -0.042202894,
      -0.07829527,
      -0.12868668,
      0.06242297,
      -0.14874612,
      0.0025776585,
      0.0669312,
      0.013161627,
      0.07656562,
      0.034280006,
      -0.021059409,
      0.036527682,
      0.078387566
    ],
    [
      -0.109619156,
      -0.07265051,
      0.06649865,
      -0.029941354,
      0.019992068,
      0.15156814,
      -0.010324206,
      0.00897557,
      0.04940554,
      0.006926416,
      -0.070199795,
      -0.113787,
      0.043245558,
      -0.112409435,
      0.024492942,
      0.054252718,
      -0.08550004,
      0.014346681,
      0.14410241,
      -0.107868835,
      -0.05042776,
      -0.046386443,
      -0.060161084,
      -0.09853106,
      0.0072508254,
      -0.03871846,
      0.035306577,
      0.122356385,
      -0.005857222,
      -0.039388176,
      -0.007814259,
      0.079549395,
      0.041630264,
      -0.02545143
    ],
    [
      0.012275708,
      -0.10436963,
      0.012242617,
      -0.118071124,
      0.04534346,
      0.09868949,
      0.018637422,
      -0.015034664,
      0.1587407,
      0.13848287,
      0.011528619,
      -0.13601659,
      0.061477732,
      -0.009068618,
      -0.03170938,
      -0.07317618,
      -0.10371922,
      0.11409687,
      0.061956707,
      -0.047938734,
      -0.017135374,
      -0.034751587,
      -0.0026552398,
      -0.0074211657,
      0.07962791,
      -0.097882554,
      -0.054301113,
      -0.10290318,
      0.04387739,
      0.10364629,
      -0.0140317045,
      0.02160881,
      0.01309975,
      0.0137999505
    ],
    [
      0.03262112,
      -0.115947634,
      0.009310257,
      -0.06254165,
      0.0044467994,
      0.09580972,
      0.016283026,
      -0.01101654,
      0.14473996,
      0.023147102,
      -0.049236227,
      -0.11262462,
      -0.023710117,
      -0.06696359,
      -0.03373817,
      -0.1147186,
      -0.1292266,
      0.016311204,
      -0.006142714,
      0.1570907,
      -0.038088255,
      0.03312748,
      0.05703244,
      0.024374487,
      0.021988494,
      -0.14478327,
      -0.083587356,
      -0.048880454,
      -0.07895424,
      0.0480541,
      0.11428665,
      0.080019705,
      -0.021037143,
      -0.08339159
    ],
    [
      0.037231844,
      -0.11800031,
      0.13472022,
      -0.12523985,
      -0.0039594495,
      0.03853087,
      0.07210637,
      0.069981754,
      -0.070978,
      -0.023121662,
      0.027057799,
      -0.15037681,
      -0.007865886,
      -0.03897887,
      -0.08591933,
      -0.035547696,
      -0.093569905,
      -0.040403362,
      0.07663057,
      0.06364209,
      -0.058254406,
      -0.037427254,
      0.06178989,
      -0.015374609,
      0.12228295,
      -0.023095794,
      -0.12399406,
      -0.08766744,
      0.040111076,
      0.008855366,
      -0.0069367103,
      0.13575993,
      -0.017773371,
      -0.025398582
    ],
    [
      0.008353646,
      -0.024667166,
      -0.04079502,
      -0.035922453,
      0.09794549,
      0.07008975,
      0.051199894,
      0.12234688,
      -0.059025545,
      -0.061317243,
      0.024758104,
      -0.087385684,
      0.084045984,
      0.09641191,
      -0.11915391,
      -0.007324198,
      -0.0026142555,
      0.03325962,
      0.18730916,
      0.05650871,
      0.06602349,
      0.02438089,
      0.037001994,
      0.101294234,
      0.07874714,
      -0.056938633,
      -0.0013189366,
      -0.0043065073,
      -0.08479826,
      -0.08765104,
      0.032094963,
      0.10714085,
      -0.053935718,
      -0.020083165
    ],
    [
      -0.061256178,
      6.379219e-05,
      -0.032591816,
      0.029250732,
      0.06383125,
      -0.050224222,
      -0.060854312,
      -0.03175975,
      -0.0329828,
      0.053649202,
      0.07710792,
      0.026745534,
      0.0032587554,
      -0.062545605,
      -0.09470066,
      -0.0064005097,
      -0.08102974,
      -0.050256472,
      0.07067035,
      -0.07417035,
      0.104202546,
      0.011680625,
      -0.080659516,
      0.005764064,
      0.066904664,
      0.013246068,
      -0.06025496,
      -0.077878475,
      -0.065008305,
      0.02120015,
      -0.08864031,
      0.05763513,
      -0.064870775,
      0.020460695
    ],
    [
      -0.0034664003,
      0.04025905,
      0.015895633,
      -0.07730098,
      -0.007424552,
      0.057742108,
      0.010770421,
      0.049943794,
      -0.0094937,
      -0.008520617,
      0.022183,
      -0.043054268,
      0.0048347916,
      0.051052257,
      0.06804393,
      0.045748275,
      -0.024380324,
      -0.081861034,
      0.001873952,
      -0.055681005,
      -0.040297646,
      0.042854633,
      -0.08591716,
      0.007305001,
      0.10129382,
      -0.051064417,
      0.034552574,
      0.071213946,
      -0.005105488,
      0.027092211,
      -0.009946018,
      0.056391936,
      0.05146544,
      0.05619885
    ],
    [
      0.055795442,
      0.0310639,
      -0.00032082776,
      0.047309987,
      0.007332744,
      -0.07522581,
      0.061214045,
      -0.02748694,
      0.062256694,
      0.017801264,
      -0.048789676,
      -0.014905714,
      0.008701138,
      0.068284385,
      0.015725223,
      -0.06888979,
      -0.001385769,
      -0.039560273,
      -0.042469125,
      0.012432104,
      0.041809823,
      0.06338493,
      0.044718735,
      -0.035843294,
      -0.045763288,
      0.023668181,
      0.034825455,
      -0.007401485,
      -0.017058976,
      0.031517413,
      0.05846685,
      -0.0069722836,
      0.011200872,
      0.05078063
    ],
    [
      0.04994688,
      -0.013293833,
      -0.07350515,
      0.053747736,
      -0.059697304,
      -0.012911059,
      0.027118027,
      0.071787514,
      -0.074235074,
      0.018496647,
      -0.0023900643,
      -0.017084792,
      -0.04084477,
      0.010764435,
      0.05418291,
      0.041630343,
      -0.07246718,
      -0.03785486,
      -0.07607772,
      0.047119357,
      0.059190266,
      -0.050366417,
      0.07441384,
      0.047104217,
      -0.05830056,
      0.022330008,
      0.0013150647,
      0.03607645,
      0.010707565,
      -0.028632678,
      0.009241901,
      -0.046870504,
      -0.024988972,
      -0.00318297
    ],
    [
      -0.02025424,
      0.048643954,
      0.026131175,
      0.052384667,
      0.050483786,
      0.020605072,
      -0.07334017,
      0.028091453,
      -0.05799575,
      0.08040611,
      -0.07392302,
      0.0476247,
      0.01070939,
      0.022355631,
      0.025587976,
      -0.0615882,
      0.04420828,
      -0.06449642,
      0.0538358,
      -0.039122835,
      -0.01011081,
      0.08053809,
      -0.013717368,
      0.003540732,
      0.008132942,
      -0.029377405,
      0.042409874,
      0.06148263,
      0.050046258,
      -0.07836437,
      -0.015084341,
      0.0088106245,
      0.030256368,
      0.025297306
    ],
    [
      0.012498759,
      -0.0014828453,
      -0.05000109,
      0.003203085,
      -0.040913954,
      0.06239356,
      -0.01242846,
      -0.021460397,
      -0.11032273,
      0.0093958145,
      0.04556535,
      0.04895131,
      0.015874736,
      0.01417028,
      -0.034094743,
      -0.0059864265,
      0.0050864005,
      -0.037733562,
      0.16020684,
      -0.05332481,
      -0.032726273,
      0.019957436,
      0.039733205,
      -0.07644711,
      -0.075174,
      0.049824253,
      -0.027592031,
      -0.003395546,
      -0.030137522,
      -0.07815031,
      0.050054286,
      -0.06548128,
      0.053742822,
      -0.076070614
    ],
    [
      0.036467228,
      -0.062170554,
      -0.052321013,
      0.03902058,
      0.020478772,
      -0.061323248,
      -0.10294237,
      -0.05662894,
      -0.14441726,
      -0.022728715,
      -0.0073909406,
      -0.02656135,
      0.058074825,
      -0.015672322,
      0.0002502382,
      0.012071812,
      -0.00845007,
      -0.055984937,
      0.06978144,
      -0.036133748,
      0.028120806,
      0.027782565,
      -0.034808062,
      0.038377378,
      -0.012615584,
      -0.10868024,
      -0.06095395,
      -0.0314546,
      0.0619595,
      -0.07800006,
      -0.07266653,
      -0.024811232,
      -0.07527443,
      0.014299087
    ],
    [
      -0.10627497,
      0.0067240456,
      -0.05030459,
      0.023310542,
      0.031711213,
      -0.063471355,
      -0.062117036,
      -0.035064388,
      -0.06322015,
      -0.044738464,
      0.0048322375,
      -0.082449004,
      0.05988176,
      0.07614726,
      -0.080590904,
      -0.012568175,
      0.015015334,
      -0.09393808,
      0.13331975,
      0.069528714,
      0.11134426,
      0.06194505,
      0.07130096,
      0.0135860825,
      0.10644435,
      -0.03654747,
      0.00340983,
      0.06111451,
      -0.06814743,
      -0.01603115,
      -0.053470224,
      0.031765662,
      -0.04000188,
      -0.065505944
    ],
    [
      -0.03114479,
      0.008047663,
      -0.0426681,
      -0.0064734323,
      0.080879174,
      0.032089163,
      -0.027658153,
      -0.004807654,
      0.06706014,
      -0.025215656,
      0.0023500172,
      0.087652385,
      0.07654878,
      0.0055705705,
      0.029602053,
      -0.066774346,
      0.011980206,
      -0.089117795,
      -0.0072740307,
      0.013446209,
      0.08817082,
      0.043271743,
      0.02872522,
      0.00033615134,
      -0.042389777,
      -0.03290758,
      -0.034289278,
      0.0029215156,
      0.03043166,
      0.0869415,
      -0.051157463,
      0.011929461,
      -0.08169605,
      -0.17084968
    ],
    [
      -0.08142164,
      0.043609962,
      0.02578989,
      0.091680504,
      -0.008057442,
      0.1228014,
      -0.04681378,
      -0.02942545,
      -0.0054500466,
      -0.039853863,
      0.064893894,
      0.06053719,
      -0.06913116,
      -0.04090356,
      0.085999094,
      -0.025034342,
      -0.06206549,
      -0.044741243,
      0.03987598,
      0.039481316,
      0.033265274,
      0.0029724953,
      0.044607718,
      -0.031014038,
      -0.012931928,
      0.054603636,
      0.055102695,
      0.13090636,
      -0.07560081,
      0.060127165,
      -0.045497764,
      -0.026372997,
      -0.10798052,
      -0.07587859
    ],
    [
      -0.0092567,
      0.0048077577,
      -0.1131548,
      0.025687106,
      -0.0436512,
      -0.021726811,
      -0.013597209,
      -0.033279862,
      0.033920106,
      -0.08984008,
      0.04916006,
      0.014372496,
      -0.054752808,
      -0.039362423,
      0.059304804,
      0.00486145,
      -0.03714905,
      -0.026624985,
      0.03566983,
      0.102159254,
      -0.07535005,
      -0.0920074,
      0.099222794,
      0.018801812,
      0.073618405,
      -0.03440107,
      0.008702135,
      -0.037638023,
      -0.054222926,
      0.10576022,
      -0.033250153,
      0.010813814,
      0.09726235,
      0.025932308
    ],
    [
      -0.074273296,
      -0.07699878,
      0.014752632,
      0.016258389,
      -0.020430986,
      0.020409524,
      0.045369234,
      -0.06676577,
      -0.045839425,
      0.03815851,
      0.03621812,
      0.04722974,
      0.06572033,
      0.019379962,
      0.031994864,
      -0.019359108,
      -0.015443182,
      0.061780933,
      0.057028577,
      -0.054837305,
      -0.007939146,
      -0.008707875,
      0.011524518,
      0.009446515,
      -0.04979856,
      0.037819054,
      -0.012439677,
      0.07315191,
      -0.07080324,
      -0.040837638,
      0.040510874,
      -0.009312345,
      -0.039713107,
      0.037110064
    ],
    [
      0.030035052,
      0.048851896,
      0.11005576,
      0.099236704,
      -0.048708793,
      0.007977084,
      0.0652426,
      -0.093288526,
      0.06480945,
      -0.008610614,
      -0.110837534,
      -0.08736295,
      -0.044824664,
      0.050788004,
      0.040610373,
      0.0018605243,
      0.03363797,
      0.07402814,
      -0.0037099547,
      -0.1878397,
      -0.025491646,
      -0.1295757,
      -0.03686241,
      -0.02589167,
      -0.033251498,
      0.11846258,
      0.0062524304,
      0.042655397,
      -0.11751622,
      -0.0124670835,
      0.0034530796,
      -0.020934014,
      -0.052403055,
      -0.0150875375
    ],
    [
      -0.06098129,
      -0.009566145,
      0.00042786787,
      0.049800348,
      0.05856487,
      -0.021041252,
      -0.030377558,
      -0.12505953,
      0.06508734,
      0.08425479,
      0.014882037,
      -0.053719293,
      0.026439175,
      -0.0076415297,
      0.06899693,
      0.055972137,
      0.0080312155,
      0.06661203,
      0.10347088,
      -0.17931026,
      -0.07484858,
      -0.034732606,
      -0.13656373,
      -0.105272904,
      -0.032334592,
      -0.0172808,
      -0.036927354,
      -0.043138895,
      -0.064417556,
      0.027275315,
      -0.047670063,
      -0.0061068432,
      -0.011641109,
      0.070815414
    ],
    [
      0.035590973,
      -0.07023008,
      -0.005883427,
      -0.011577785,
      -0.0064240145,
      0.068672165,
      -0.011319152,
      0.011705336,
      -0.057894524,
      0.010021847,
      -0.120401174,
      -0.0397034,
      0.0058647785,
      0.008471929,
      -0.033926655,
      0.118333004,
      0.05841816,
      0.03353682,
      0.060840208,
      -0.09801957,
      -0.12835091,
      -0.087867655,
      -0.04286536,
      0.019346407,
      0.04350974,
      -0.023000617,
      0.062476914,
      0.0025436722,
      0.02650475,
      0.08255239,
      0.07791601,
      0.11333039,
      0.039417017,
      0.07256429
    ],
    [
      0.03068013,
      0.016373567,
      0.09317369,
      0.035245687,
      -0.040301535,
      0.03531572,
      0.022557693,
      -0.072791286,
      0.09882699,
      0.11445905,
      0.020361517,
      -0.18043986,
      -0.10419888,
      -0.056299027,
      0.03611521,
      0.043265037,
      0.028431803,
      0.063349664,
      0.12131777,
      -0.09523902,
      0.017072216,
      -0.029923083,
      -0.047744703,
      -0.020271538,
      -0.01931829,
      0.07631468,
      -0.0243185,
      0.016977541,
      -0.07092381,
      0.0046387888,
      -0.02632147,
      -0.031194884,
      0.08196578,
      0.08913104
    ],
    [
      0.11137737,
      -0.06260527,
      0.04164309,
      0.033718232,
      0.049558673,
      0.053641204,
      0.03888513,
      -0.017775318,
      0.009021884,
      0.121419236,
      -0.09149064,
      -0.06432619,
      -0.018590035,
      -0.106284745,
      0.055559613,
      -0.022954615,
      -0.019535057,
      -0.053118143,
      0.011978128,
      -0.07687847,
      0.015115384,
      -0.09360918,
      -0.026674476,
      -0.092932336,
      0.05101522,
      -0.02551891,
      -0.009674577,
      0.09644897,
      -0.062377073,
      0.04275154,
      0.072780974,
      0.014840678,
      -0.035039485,
      0.011333136
    ],
    [
      0.06775169,
      0.024143888,
      0.063382775,
      -0.037690442,
      0.053532746,
      0.097546734,
      0.017989887,
      -0.0008885438,
      0.04408265,
      0.06806413,
      -0.04672531,
      -0.0626399,
      -0.028553732,
      -0.13449503,
      0.0032055487,
      0.07099532,
      0.03586631,
      0.03326052,
      0.0015076457,
      -0.17878626,
      -0.118998654,
      0.02642753,
      -0.08185107,
      -0.08037341,
      -0.032443453,
      0.036627937,
      0.046359386,
      0.09734918,
      0.044041935,
      0.07796706,
      0.027472163,
      0.011639542,
      -0.053786296,
      0.02702601
    ],
    [
      -0.0325896,
      0.030894335,
      0.054465234,
      -0.013393431,
      -0.015553109,
      0.0727767,
      0.0430731,
      -0.041837573,
      0.0017583523,
      0.107078485,
      -0.11365578,
      -0.09119105,
      -0.0390263,
      -0.089838654,
      0.025610747,
      0.05364699,
      0.0786194,
      -0.01823469,
      0.09489342,
      -0.025020817,
      -0.0011137518,
      -0.012313482,
      -0.0061426745,
      0.0026485957,
      -0.053210333,
      -0.03622081,
      0.05944206,
      0.056818727,
      0.102507785,
      -0.054150227,
      0.019467048,
      0.07883781,
      -0.06473033,
      0.0015678884
    ],
    [
      -0.0036831133,
      -0.049727213,
      0.069947235,
      0.085691944,
      0.09424203,
      0.014189986,
      0.07605933,
      0.008282451,
      0.022736996,
      -0.010455937,
      -0.066998966,
      -0.06247091,
      -0.02030914,
      -0.02608207,
      0.06950406,
      0.10723882,
      0.010971494,
      0.017282376,
      0.07014983,
      -0.026707225,
      0.014033553,
      -0.05859248,
      -0.091764905,
      -0.0510328,
      -0.04289352,
      0.013014652,
      0.0928974,
      0.09788265,
      0.038426176,
      -0.05813648,
      -0.046432458,
      0.047321837,
      0.05755093,
      0.036634367
    ],
    [
      -0.01746345,
      -0.0131257195,
      0.028532876,
      -0.1272337,
      0.062452536,
      0.045468874,
      0.032142922,
      -0.076934084,
      0.11445426,
      0.11711374,
      -0.04020143,
      -0.14354666,
      -0.055846322,
      -0.024759227,
      0.03572675,
      0.0139567945,
      0.045447692,
      -0.019856673,
      0.06015086,
      -0.11677472,
      -0.1259006,
      -0.07262873,
      -0.026571311,
      -0.10176721,
      0.057443403,
      -0.12473246,
      0.0028803376,
      0.03693302,
      0.06653464,
      -0.027739624,
      0.027179902,
      0.0146756,
      -0.060367733,
      0.08636683
    ],
    [
      -0.12452909,
      -0.044138268,
      -0.005741974,
      -0.18222825,
      0.009940165,
      0.06331705,
      0.06810583,
      -0.04506702,
      0.011527672,
      0.04573316,
      0.045417253,
      -0.07401613,
      -0.01741991,
      -0.0050785695,
      -0.050997533,
      0.038387556,
      -0.029884689,
      -0.02357476,
      0.0046268203,
      0.038922943,
      -0.12122119,
      -0.07457852,
      0.0657493,
      0.033600785,
      0.016918115,
      -0.08667407,
      -0.013689439,
      0.041218635,
      -0.01004545,
      0.069917805,
      0.0060539064,
      0.10461128,
      0.018324632,
      0.07812048
    ],
    [
      -0.0112309875,
      -0.106831394,
      0.13089229,
      -0.09583156,
      0.035175167,
      -0.008631777,
      0.0762429,
      0.08572019,
      0.107121676,
      0.036292523,
      0.107973754,
      -0.045047972,
      0.028522674,
      0.025829704,
      0.03780089,
      -0.047224097,
      -0.027633324,
      -0.016499374,
      0.047349468,
      0.118022844,
      0.0005525096,
      -0.0068096006,
      0.0042382306,
      -0.008970341,
      0.00882484,
      -0.07864487,
      0.108075425,
      -0.06857854,
      0.05356572,
      0.06204601,
      0.00822637,
      0.106876254,
      0.118440464,
      -0.0823248
    ],
    [
      -0.014167236,
      -0.19280502,
      0.038476765,
      -0.13764037,
      -0.02595129,
      0.033435415,
      0.07387262,
      0.04845397,
      0.041189108,
      -0.021768326,
      0.09391238,
      -0.058861136,
      -0.0143449595,
      0.09720309,
      0.030244818,
      -0.08843244,
      -0.0081593795,
      0.06472683,
      0.08807283,
      0.1273213,
      0.042418446,
      -0.027839571,
      0.021288162,
      0.07862082,
      0.10231382,
      -0.18180314,
      -0.034773163,
      -0.050120205,
      -0.10071147,
      0.00021114954,
      0.017985463,
      0.08200244,
      -0.12867883,
      -0.01265908
    ],
    [
      -0.082376786,
      -0.04397873,
      0.09595451,
      -0.019941464,
      0.1492541,
      0.13503718,
      0.1194176,
      0.022626162,
      -0.0388438,
      0.030465966,
      0.00784155,
      -0.03692782,
      0.0685365,
      0.053324636,
      -0.033180982,
      -0.031016681,
      -0.07780615,
      -0.06854499,
      0.01606292,
      0.13607047,
      0.073200405,
      -0.02328376,
      0.086422995,
      -0.012504785,
      0.010687689,
      -0.03371801,
      -0.073021606,
      -0.0733892,
      -0.0290014,
      -0.08668247,
      -0.05215056,
      0.06883115,
      -0.106154606,
      0.011011279
    ],
    [
      -0.062289983,
      -0.009577186,
      -0.03561198,
      0.042324834,
      0.106909886,
      -0.020097815,
      0.044787064,
      0.04447978,
      -0.11002675,
      -0.060631823,
      0.042906597,
      -0.11201187,
      -0.028759811,
      -0.023634708,
      -0.06328382,
      -0.08745418,
      -0.069307774,
      -0.010320172,
      0.16492678,
      0.0735564,
      0.04922929,
      0.11959151,
      0.057798926,
      0.10993151,
      0.076769605,
      -0.04929161,
      -0.060125664,
      0.053477358,
      -0.015296842,
      -0.047102164,
      0.013968375,
      0.10132516,
      -0.0012976098,
      0.018413115
    ],
    [
      -0.073091015,
      -0.07507787,
      -0.08462533,
      -0.08408463,
      0.08811,
      -0.07416522,
      0.01410145,
      0.038308,
      -0.072284944,
      -0.029766265,
      0.03730011,
      0.022150252,
      0.03503555,
      -0.06377555,
      -0.013789377,
      -0.008063276,
      0.026542602,
      0.012880807,
      0.09975095,
      0.016027644,
      0.07222659,
      -0.004758502,
      -0.042896233,
      -0.05238843,
      0.12901007,
      -0.013343998,
      -0.051969197,
      -0.04807931,
      -0.0793316,
      -0.04848912,
      -0.04215231,
      -0.017455297,
      -0.0019367632,
      -0.08906964
    ],
    [
      -0.082470864,
      0.0062305843,
      -0.05592145,
      -0.06645827,
      0.058018286,
      0.07039178,
      -0.049037952,
      0.063192315,
      0.05379239,
      -0.008686452,
      0.004797539,
      -0.028367955,
      0.0015368101,
      -0.09496455,
      -0.058164198,
      0.0068658334,
      0.054759327,
      -0.06865239,
      -0.048916016,
      0.015763795,
      0.013895817,
      0.058545046,
      -0.080385104,
      -0.04995367,
      -0.014718435,
      -0.016240485,
      0.047556218,
      -0.039181553,
      0.017963935,
      0.018414127,
      -0.0066845366,
      -0.050252426,
      -0.07090049,
      0.01608577
    ],
    [
      -0.05380034,
      0.045684405,
      0.07013295,
      -0.021679614,
      -0.039435856,
      -0.035527553,
      0.00783053,
      0.034760766,
      0.036494553,
      -0.008320808,
      0.011561267,
      0.044183575,
      -0.057185903,
      -0.07491204,
      -0.025886819,
      -0.013292864,
      -0.0032080337,
      0.038022608,
      0.0213392,
      0.028774023,
      -0.04775303,
      0.07628105,
      0.034050032,
      -0.033246618,
      -0.052437685,
      0.0051317066,
      0.03853923,
      0.07914468,
      -0.027650125,
      -0.056775544,
      0.012029082,
      0.045991518,
      0.06121034,
      -0.03191124
    ],
    [
      -0.080550045,
      0.054653488,
      0.052928157,
      0.05252228,
      0.006158285,
      0.07687517,
      0.029716559,
      0.034120932,
      0.016248122,
      -0.022842832,
      0.06739209,
      0.03578365,
      0.012401201,
      -0.054049537,
      0.05186113,
      0.042060032,
      0.000782907,
      -0.081181064,
      0.0052072257,
      -0.0437594,
      -0.06736739,
      0.078270294,
      0.0635479,
      -0.009329066,
      -0.026768666,
      -0.07333948,
      -0.07185035,
      -0.015641809,
      -0.0022313073,
      -0.06004531,
      -0.07106485,
      -0.06934275,
      -0.04301392,
      0.0070738196
    ],
    [
      -0.011888906,
      0.043290358,
      -0.03553235,
      0.007896191,
      0.03302265,
      -0.009844708,
      -0.07385102,
      0.012124751,
      0.009194061,
      0.071910754,
      -0.08381255,
      -0.03574452,
      0.017866096,
      -0.011286777,
      -0.08593801,
      -0.008574932,
      -0.080653824,
      0.0132091595,
      0.006309936,
      0.044222515,
      0.07197688,
      0.07148029,
      -0.05599403,
      -0.044671487,
      0.015965726,
      -0.014515922,
      -0.014076993,
      -0.05210722,
      -0.03248169,
      -0.048311938,
      -0.005640321,
      -0.06831155,
      -0.028417436,
      0.03289028
    ],
    [
      -0.050574534,
      0.01217401,
      -0.07181655,
      0.05235874,
      0.026647523,
      0.02447647,
      -0.06831134,
      -0.029820688,
      -0.08590155,
      -0.06016783,
      -0.06838026,
      -0.020021852,
      0.068825014,
      0.0018633705,
      -0.08106177,
      0.0076567368,
      -0.008330278,
      -0.04323658,
      0.14875457,
      0.046468224,
      0.016557861,
      0.008502424,
      0.032187387,
      0.0646415,
      -0.015279349,
      -0.04482269,
      0.07493957,
      -0.0019968217,
      0.04955305,
      -0.028707797,
      0.034720674,
      0.014517342,
      0.020037396,
      0.011281108
    ],
    [
      0.011424853,
      0.13835421,
      -0.031047301,
      0.031079832,
      -0.09813496,
      0.02926633,
      -0.06116719,
      0.014558589,
      -0.058351643,
      0.010032922,
      0.0415741,
      0.05661974,
      0.028475128,
      0.056684725,
      0.021779617,
      -0.098881245,
      -0.018330665,
      0.008845585,
      0.069803216,
      0.03765144,
      0.105917595,
      -0.0429263,
      0.07088165,
      0.042952307,
      0.0023332986,
      -0.0527592,
      0.09258807,
      -0.012052143,
      0.013768578,
      0.04182087,
      -0.051552713,
      0.044630077,
      -0.109219454,
      -0.039302636
    ],
    [
      0.0164891,
      0.013704053,
      -0.052357573,
      0.10343272,
      0.08399847,
      0.008636886,
      0.006251754,
      0.08276668,
      -0.038034398,
      -0.06611185,
      0.096733935,
      0.11096623,
      0.02831322,
      0.08161931,
      -0.034661677,
      -0.118333615,
      -0.037403695,
      -0.058684092,
      0.0011523183,
      0.07460817,
      -0.038288966,
      -0.0041577755,
      0.053676534,
      -0.014160462,
      -0.04686892,
      0.0018360112,
      0.008349945,
      0.0322531,
      -0.06357348,
      0.025957162,
      -0.1236297,
      0.00416454,
      -0.08329346,
      -0.12400023
    ],
    [
      -0.028660811,
      -0.04219893,
      -0.008569062,
      0.056607544,
      0.04273754,
      0.055874467,
      -0.08672606,
      0.004328958,
      -0.034228887,
      -0.03976607,
      -0.039499793,
      0.058186393,
      -0.06693493,
      0.06699717,
      -0.0507219,
      0.033969708,
      -0.048750322,
      0.06596526,
      0.050896145,
      -0.025729086,
      0.05472065,
      -0.04903421,
      -0.051697712,
      -0.04199908,
      0.046246476,
      -0.021020686,
      0.07484925,
      0.03087096,
      -0.037222557,
      0.10521713,
      -0.043754548,
      0.09342676,
      0.03543457,
      0.0643438
    ],
    [
      0.019167703,
      0.013231131,
      -0.12686737,
      0.0031015726,
      -0.018232325,
      -0.045336016,
      -0.028962893,
      0.079294056,
      -0.0029099195,
      -0.093762584,
      -0.05578102,
      0.0842415,
      -0.058066316,
      -0.03905542,
      -0.0014982516,
      -0.028704656,
      0.0731729,
      0.024792906,
      -0.01857026,
      0.022573909,
      -0.11562522,
      -0.030007295,
      -0.03683646,
      -0.017011553,
      -0.0046142885,
      0.046278343,
      0.09566812,
      -0.020425655,
      -0.029985927,
      -0.020235866,
      -0.060845863,
      0.06280658,
      0.03717992,
      -0.008155342
    ],
    [
      -0.05133656,
      0.023547646,
      0.10922904,
      0.035301432,
      -0.012629985,
      0.03099364,
      0.034986906,
      -0.06886078,
      0.025487289,
      -0.10433683,
      -0.039897345,
      -0.036948066,
      -0.028728897,
      0.010841346,
      -0.025982624,
      0.03593337,
      -0.01976742,
      0.07295836,
      0.025175413,
      -0.10427084,
      -0.06989332,
      -0.027363053,
      0.09949142,
      -0.047530357,
      0.07132164,
      0.096163176,
      -0.051270615,
      0.05227712,
      0.0027125804,
      0.043221816,
      0.052677557,
      0.036137715,
      -0.060053267,
      0.081101425
    ],
    [
      -0.06559607,
      0.016856533,
      0.045313984,
      0.047366537,
      -0.024001462,
      0.1152013,
      0.027897518,
      -0.15510687,
      -0.029971357,
      -0.030609868,
      -0.09566546,
      -0.036941115,
      -0.06330767,
      -0.013931884,
      -0.03592928,
      0.024527512,
      -0.004924503,
      -0.0034530552,
      0.033853542,
      -0.14190936,
      -0.08762895,
      0.030145902,
      0.03895685,
      0.008789786,
      0.1015712,
      -0.0037004906,
      -0.09708293,
      -0.12332182,
      -0.06454236,
      0.050283317,
      -0.05440029,
      0.0333287,
      0.0004946609,
      0.09396017
    ],
    [
      0.017412052,
      0.0057424125,
      0.13258497,
      0.04613648,
      0.06300013,
      0.004094996,
      -0.012120665,
      -0.046795286,
      0.014372744,
      -0.013120143,
      -0.08524364,
      -0.062615484,
      -0.09717443,
      0.022652583,
      0.029117145,
      0.028052649,
      0.0054813507,
      -0.036945358,
      0.011174631,
      -0.16878049,
      -0.047516525,
      0.03563333,
      -0.016026987,
      -0.13026187,
      0.04739961,
      0.0166074,
      -0.107329644,
      -0.014837761,
      -0.008628345,
      0.087757476,
      -0.013182699,
      0.13299945,
      0.11461385,
      0.0941168
    ],
    [
      0.028612617,
      0.11936639,
      0.000561103,
      0.00042320538,
      0.06714681,
      0.030162679,
      0.121068984,
      -0.1355476,
      -0.041780036,
      0.13297248,
      -0.028967658,
      -0.103145756,
      -0.0178105,
      -0.04742756,
      0.04102359,
      -0.15876338,
      -0.016853292,
      -0.03258171,
      -0.019920042,
      -0.054078728,
      0.015308056,
      -0.0496341,
      0.016658828,
      -0.055626936,
      0.06292437,
      0.010125119,
      -0.04481604,
      -0.07457766,
      0.034430377,
      0.07166371,
      0.042347807,
      0.10906047,
      -0.05056708,
      -0.035336424
    ],
    [
      0.049314264,
      0.1370794,
      0.054224044,
      0.11897633,
      0.094708726,
      -0.008866292,
      -0.039660357,
      -0.06459647,
      -0.011472513,
      0.14298983,
      -0.03743809,
      -0.011278479,
      -0.066577986,
      0.03782453,
      0.107112005,
      -0.09063507,
      0.10383756,
      -0.04568998,
      0.022842774,
      -0.06634536,
      0.019158304,
      -0.077051975,
      -0.04642785,
      -0.019213038,
      -0.021231353,
      -0.0030170197,
      -0.04835211,
      -0.050497655,
      0.019883964,
      0.13140564,
      -0.002991267,
      0.105455674,
      -0.057815757,
      0.00692522
    ],
    [
      -0.006858984,
      0.10236388,
      0.06403027,
      0.14334309,
      0.10363084,
      0.049531132,
      0.017991573,
      -0.1147334,
      0.093144275,
      -0.0037242568,
      -0.087060764,
      -0.0879787,
      -0.032168683,
      -0.057764262,
      0.08894674,
      -0.055280033,
      0.047920395,
      -0.0134969875,
      -0.011781243,
      0.012839489,
      -0.12152837,
      -0.024180911,
      -0.07122261,
      -0.124659225,
      0.09449688,
      0.07054361,
      -0.02276611,
      -0.061010696,
      0.10470804,
      0.07150993,
      -0.11011174,
      0.10520182,
      0.0057605454,
      0.01176472
    ],
    [
      -0.007460807,
      0.027040435,
      0.005219933,
      0.027872454,
      0.06712575,
      0.041400608,
      -0.06929073,
      -0.050530232,
      0.0043599596,
      0.001839792,
      -0.09828454,
      0.003007158,
      0.026952717,
      -0.1056683,
      0.06519561,
      0.027119057,
      0.008777076,
      -0.12723006,
      -0.013359341,
      -0.06109902,
      -0.10321917,
      -0.004681355,
      0.025164396,
      0.0175753,
      0.036715142,
      0.07565381,
      -0.018151876,
      -0.041396577,
      0.024877893,
      0.103083365,
      -0.026656138,
      0.04747266,
      0.00011385287,
      0.008800545
    ],
    [
      0.0611292,
      0.109199405,
      0.007880904,
      0.07156061,
      0.08740924,
      0.10229613,
      -0.06326336,
      -0.06697862,
      0.044068735,
      0.06805511,
      -0.00045088684,
      -0.11084006,
      -0.11861245,
      -0.02403128,
      0.021711357,
      0.03354463,
      0.11776665,
      -0.15143795,
      0.10058672,
      -0.06774881,
      0.025010915,
      -0.019588038,
      -0.0717275,
      -0.0120115485,
      -0.026567899,
      0.077051125,
      0.019603284,
      0.084580794,
      -0.012807091,
      0.10814901,
      -0.00043083928,
      0.1265835,
      -0.05271427,
      -0.06724463
    ],
    [
      -0.068473406,
      -0.03752947,
      0.050824534,
      0.0656661,
      0.015797632,
      0.124157734,
      -0.10963219,
      -0.114171125,
      0.098241314,
      0.111296766,
      -0.05275858,
      -0.10181939,
      -0.12436116,
      0.0107370205,
      0.058482718,
      0.0798914,
      -0.010524894,
      -0.07818078,
      0.13868362,
      -0.062450513,
      -0.117690995,
      -0.012858078,
      -0.056608908,
      -0.053678256,
      0.059232417,
      -0.030498514,
      0.038988177,
      0.103315264,
      0.02193679,
      0.10998679,
      -0.0028544203,
      0.028141003,
      0.014707527,
      0.05605146
    ],
    [
      -0.11936056,
      -0.060287554,
      -0.08175764,
      0.006732325,
      0.04965056,
      0.07368682,
      -0.028202541,
      -0.03364304,
      0.080482945,
      0.010232079,
      0.008257873,
      -0.09834397,
      -0.05151589,
      0.019853663,
      0.033683106,
      0.075447194,
      0.04166312,
      0.049016975,
      -0.008873864,
      0.019552715,
      -0.08275528,
      -0.10587433,
      -0.019905858,
      -0.106219254,
      0.00034527146,
      -0.07494227,
      0.09740541,
      0.046079982,
      0.061856657,
      -0.032073617,
      -0.02440711,
      0.07816918,
      -0.014473604,
      0.0098302085
    ],
    [
      -0.10802394,
      0.028115625,
      -0.0808947,
      -0.11865573,
      -0.012990451,
      0.0131214475,
      -0.021822335,
      -0.05878818,
      0.0074040936,
      -0.0010212418,
      0.0061292155,
      -0.17392981,
      -0.02078571,
      -0.044072796,
      -0.046989292,
      0.0811794,
      -0.010567064,
      -0.009896535,
      0.0004123304,
      0.08488294,
      -0.03211834,
      -0.079730965,
      -0.042096414,
      -0.017271431,
      0.07692644,
      -0.035179373,
      0.021710645,
      0.06271418,
      0.10149281,
      0.042274885,
      -0.031139717,
      -0.032616667,
      0.06366361,
      0.052996635
    ],
    [
      -0.10052006,
      -0.0071906312,
      0.10657374,
      -0.0931133,
      0.020083684,
      0.10090897,
      0.05395714,
      0.043934155,
      -0.0065930476,
      0.12677073,
      0.084445804,
      -0.17810608,
      -0.07508864,
      0.07945895,
      -0.021683097,
      -0.03343256,
      -0.108086966,
      0.0141347125,
      -0.019855095,
      0.026822077,
      -0.061646685,
      -0.12598127,
      -0.06083465,
      0.037783105,
      0.04063741,
      -0.18944922,
      -0.012310808,
      -0.017643608,
      -0.012209051,
      0.048079487,
      -0.043827254,
      0.04932673,
      -0.041157182,
      0.061910957
    ],
    [
      -0.10419193,
      -0.109814346,
      0.13674805,
      -0.13390192,
      0.06888887,
      -0.004200845,
      -0.013368907,
      -0.03510461,
      0.002623944,
      0.043224588,
      0.055201687,
      -0.10182235,
      0.04298876,
      0.04475336,
      0.09895519,
      -0.061974727,
      -0.08043762,
      0.09559428,
      0.004053817,
      0.06340879,
      0.088394985,
      -0.10313716,
      -0.04598223,
      0.018821009,
      -0.022930056,
      -0.09234733,
      0.049456865,
      -0.03994871,
      -0.11633967,
      -0.060991567,
      0.01995557,
      0.092183985,
      0.09175184,
      -0.13195595
    ],
    [
      -0.008589044,
      -0.12536454,
      0.098918885,
      -0.0028641715,
      0.09748447,
      -0.029193515,
      0.1444335,
      0.021695487,
      0.0058880085,
      -0.07377141,
      0.03459414,
      -0.101481184,
      0.014825479,
      0.09511458,
      -0.0011706875,
      -0.034442037,
      -0.07810295,
      0.060150456,
      0.020480815,
      0.1479592,
      -0.031786464,
      -0.0016347406,
      0.106710784,
      -0.030733218,
      -0.0005681968,
      -0.13122049,
      0.049062483,
      0.037432134,
      -0.07314999,
      -0.020949017,
      -0.013470527,
      0.10448998,
      -0.03728502,
      -0.014944951
    ],
    [
      -0.017060297,
      -0.053623907,
      0.0032782117,
      -0.09298422,
      0.071369335,
      -0.09555279,
      -0.027445128,
      0.027389247,
      -0.13061506,
      0.005939802,
      0.030773398,
      0.0029301613,
      0.07000722,
      0.022110218,
      -0.0007355602,
      -0.033753756,
      0.005278739,
      -0.10272024,
      0.20543191,
      -0.067320995,
      0.12320536,
      0.021294339,
      -0.066356346,
      0.08480504,
      0.14731418,
      0.02770736,
      -0.043276124,
      -0.09183235,
      0.045705773,
      -0.012873198,
      -0.09831103,
      0.015387574,
      -0.00012255351,
      -0.116128676
    ],
    [
      -0.00612429,
      0.049246877,
      0.026841287,
      0.019109916,
      -0.011080981,
      0.043315396,
      -0.0026764586,
      -0.07784541,
      0.007951173,
      0.058451254,
      -0.026903484,
      0.04262037,
      0.03165007,
      0.04234165,
      -0.008310497,
      -0.024569744,
      -0.0763275,
      0.0060270657,
      0.03574478,
      -0.09435192,
      0.014557085,
      0.033690043,
      -0.0188979,
      -0.06432048,
      0.1692534,
      -0.08399236,
      0.00305413,
      -0.04866699,
      -0.037583236,
      0.05817638,
      0.02385116,
      -0.06580188,
      -0.06707766,
      -0.01220747
    ],
    [
      0.0768728,
      -0.065596834,
      0.06091456,
      -0.03057241,
      -0.052956294,
      -0.08556466,
      0.06689613,
      -0.07187942,
      0.041546404,
      0.027041446,
      -0.0019296082,
      0.039531495,
      0.044135872,
      -0.051871978,
      -0.03687581,
      0.026670402,
      -0.054657746,
      0.007900218,
      -0.011759745,
      -0.08435967,
      -0.07286868,
      0.093072884,
      -0.017996749,
      -0.036153942,
      0.020065406,
      0.013628657,
      0.0135621065,
      0.020946477,
      0.06102468,
      0.0028616937,
      0.020778676,
      0.014415332,
      -0.0047021816,
      -0.04179844
    ],
    [
      0.023273624,
      0.008593895,
      -0.034868717,
      -0.004900232,
      0.059633635,
      0.03137166,
      0.0658055,
      0.073823966,
      0.06088472,
      -0.04970585,
      -0.02494504,
      0.06446671,
      -0.006376706,
      -0.05358696,
      -0.04718552,
      -0.020145088,
      0.042781048,
      0.028693713,
      0.042545274,
      -0.0670867,
      -0.062179457,
      0.06059604,
      -0.06705346,
      -0.016557902,
      -0.043776505,
      0.046503805,
      -0.024502024,
      -0.03223325,
      0.02013401,
      -0.03249037,
      0.07540997,
